1601 100
么 1.7991201 0.6796925 -0.5147412 -1.2427628 0.6993634 -0.77277523 2.1543763 1.9367253 -2.086794 0.2854999 1.5899467 -1.5154196 -1.0877496 1.1960231 0.7175791 0.9854995 1.0753499 1.0613999 -1.7092521 2.7464402 -1.145138 -0.15127169 3.3869865 2.4524143 1.8990593 -1.160171 -0.8466826 -1.8351916 -0.7518105 -1.06242 -1.6703628 2.5590045 -0.54335445 -0.7928352 0.4174696 1.9455882 1.90063 -0.2837588 1.2334142 1.1863725 -0.7462679 0.20438516 -2.0271177 0.17569296 -2.0034118 -1.111907 1.1158409 -1.2144512 -0.66456556 2.4847424 -0.7888041 -1.4661237 -0.74859875 -0.94797385 -1.4291838 -0.6898069 -0.8618695 -1.2423521 -1.2875769 0.7823401 3.077808 1.3560985 0.24979654 0.4225892 1.1070654 0.100955404 -1.5972883 -0.15256195 -1.7589037 0.9627315 -0.44798446 1.5001785 -0.0790352 1.0897254 1.3363507 0.063591816 -1.1578299 -3.4535136 -1.337895 0.8618121 -1.176177 -1.0766096 -1.138817 -1.8822562 -0.020217748 -1.2182722 -0.13785556 1.0934427 1.4523652 -0.6248214 -1.9119079 0.62164426 -1.3123597 -1.6671702 -1.3182118 0.13811798 1.0988508 0.6438809 -1.7263968 -0.6259116
款 0.49701923 -1.409381 -1.7597942 0.3563492 0.6674873 0.36782196 -0.4820797 1.0343995 1.8088275 -0.37645936 -1.1259985 -0.8561931 -0.41391656 -1.1575605 -0.64949435 1.665694 0.517463 0.42583358 0.119953156 1.9216422 0.024462558 0.7854599 0.56037563 0.45609775 -0.6179435 -0.42478946 -1.0935006 0.3641822 -0.40652952 -1.1635393 0.37756827 2.7070978 0.7288377 -1.3029653 -2.5899084 0.14116497 1.2935436 0.69224644 0.9016758 1.0906963 0.9841569 -0.80173486 0.2926196 -1.0873327 -0.9248491 -0.4884656 0.75913954 -1.2360169 1.2024242 -1.5304042 0.6289707 0.92102814 -0.21937753 -0.63553065 -0.33712792 1.6942226 1.1465329 -1.3987062 0.18238774 -1.0082465 -1.234819 -1.2215838 0.42820358 1.784698 0.7182999 -0.9873422 0.03226582 -0.8680105 -2.0086927 2.1141853 0.9345318 -1.2797399 -1.025588 1.1378043 -0.099727534 0.31419155 -0.5864583 0.15862617 2.1965594 -0.6098431 1.1613172 1.1087452 3.022495 1.1242322 1.0094337 -0.4518979 -1.4435874 0.49033624 0.9655444 -0.051169757 -0.70053256 0.5232583 -1.314838 1.9325255 -1.6537801 0.80377203 1.7390763 0.9130634 -0.7228062 -1.6935074
我 -0.5541184 -1.0564411 -0.7496386 -0.26021302 -0.15559693 0.18744202 0.28104535 1.899925 -0.018434491 0.91047806 -0.018929955 0.89065146 0.60889083 0.6085037 0.97308695 1.6925546 -0.36164886 0.11220793 -0.5645837 2.1627305 0.08936836 1.8684088 -0.21880986 0.15800293 -2.068088 -0.30245987 0.5554411 -0.9395642 -0.08688613 -1.599032 -1.2151463 -0.41068998 -0.37390342 -0.863845 -1.1523983 -0.34509292 -0.43425006 1.3432618 0.5825572 -0.71499217 0.8234222 -0.9816166 -0.63564676 -0.23465875 -0.63635725 -1.2094415 -0.26882786 1.220078 -0.24683723 -0.9264231 0.28712848 0.898473 -1.6159388 0.59837365 -0.40263352 0.785635 1.4327191 0.09479744 0.840253 0.79999787 0.21184625 0.11542778 1.4359423 0.34834275 0.6410451 0.8928714 -1.7308348 0.27155206 0.14011799 -0.41929594 0.86514485 -0.99758 -0.33016592 -1.105616 -0.47168815 -1.1767839 -0.08656572 -0.07390722 -1.3436118 -0.33229306 -0.25452882 0.057677094 -2.4162686 0.62582195 -0.019687021 0.9137506 -0.3367258 0.73386604 -0.74545485 0.54035646 0.56584644 1.0036807 -0.1977373 0.44574255 -0.59297526 -0.8565502 1.5202339 0.49340394 0.33859912 -0.2534525
还 -1.4336528 -0.37469536 1.1826366 0.18049961 1.1169794 -1.395828 -0.41254938 -0.08110246 1.1206234 -1.1614802 -0.3721204 -0.8134888 -0.71189123 -1.2360675 2.0964777 1.550023 2.0973003 1.0040778 -1.4477805 1.9051031 1.3630615 -0.10966129 0.41917875 -0.018609615 -0.49075565 -1.654964 -0.66340744 -0.20014139 1.7998295 -2.230326 -0.55898595 -0.6518786 -0.20033172 -1.6931571 0.17924823 -0.9248369 0.93247414 1.3059957 -0.42820075 -0.45628116 1.6689593 -2.7555225 -0.715287 -0.62670326 -0.43990806 0.17713048 -0.5868338 1.0207679 1.4930774 0.20046337 -0.95730644 1.9763985 -0.010842634 0.07301163 0.7620936 1.5461762 0.012546073 0.9218837 -1.1339982 0.30093935 0.36450583 0.7352219 -0.5557365 -0.5661478 -0.3830846 -1.0126302 0.015918257 -0.62205136 -1.5383755 0.7106177 -1.0375307 1.4604075 0.64525837 1.6826015 -0.9111603 -1.0525907 -1.0417194 -0.4956867 1.1057028 -0.51431185 0.84268296 0.19054759 1.1902096 -1.0335469 0.7353087 0.8100164 1.3502827 0.091730386 -1.7853343 -0.7081503 1.9424874 0.7196819 -0.7044042 -2.1257725 1.2373995 -1.4515975 0.89262545 0.5469587 -0.10645903 -1.7847697
， -1.7987535 -1.263122 1.0531721 0.09141336 0.061041135 0.1458113 -0.44294825 -0.32345778 -1.3695931 -0.8766882 0.13430725 -1.0864571 0.48102966 -1.4659201 1.0660304 0.25368977 0.5894845 -0.29829907 -0.99531585 3.346985 0.9187141 -0.10121144 1.1276939 0.5883067 -2.338983 0.15511174 0.24676445 -0.545352 -0.54482996 0.35050318 -0.94118524 0.4814868 0.8692263 -0.4945682 -0.33082327 -0.71621716 -0.33804995 -0.18726061 -0.48865354 -0.116611615 0.54310644 -1.4215871 -1.3489782 -1.5446616 0.527374 -0.24788837 0.031161994 -0.92517954 0.47569484 -0.6407581 0.67886126 -0.9164236 0.7996464 0.23197863 0.45427635 0.05037571 0.56948024 0.41988325 -0.3727459 -0.67482024 0.91579485 -0.25940314 0.9761897 0.2337777 -0.43165475 0.34856573 -0.81183267 0.5228841 -1.4143234 1.4881059 0.1289975 -1.2583739 -0.7209402 1.3813186 -0.7112881 -0.44835663 0.05617888 1.1154245 -0.03970028 -0.9925303 1.5926323 -0.16229624 0.0017018741 -0.31535226 -0.56761575 -0.12644447 0.10311148 0.18110648 0.3378844 0.2839853 0.9568563 0.55311257 -0.5495328 0.52887726 -0.6675369 -1.3168216 0.75012726 1.1765172 -0.07638561 -0.11081807
不 1.4240061 -0.63217396 0.65535104 1.3971784 -0.6285744 1.0891119 0.1894482 0.7915878 2.1847148 -0.7548923 -0.15612356 -1.1765562 0.93554485 0.5705051 0.2376019 0.29830146 -2.2614899 3.0364404 0.009873941 2.2271125 1.7105168 -0.5310957 -0.4250412 -0.30040887 -0.67060965 -0.7226365 1.3089218 -1.0320345 0.243231 0.19347599 -1.0044694 1.3962212 -1.0421526 1.5137899 1.2372627 -1.6721569 1.9017388 1.4283922 -1.4507232 0.891478 -0.51333374 0.8338316 -1.9662259 -2.0071023 -0.31917277 -1.3209714 -1.0532353 -0.5297779 -0.7993394 -0.3743373 0.35939828 1.5979892 0.29290655 -0.36811736 -0.03252581 -1.6321507 -0.22215569 0.025044516 -1.056087 0.14416218 0.9048387 -2.3470426 -1.8159369 1.7528672 -1.257847 -0.18759109 -2.1306162 2.0496507 1.106429 0.3990624 -0.40300012 0.24403523 1.2636375 0.084247194 -0.46204177 1.0221876 -1.2546673 -1.277325 0.48428005 -1.4424838 0.22329037 -1.1743486 -1.6803666 2.0227563 -0.82039577 0.37309957 -1.2890563 0.5971801 0.8927566 0.7163409 0.17567018 1.2301643 -1.3403443 0.3678224 0.6215784 -0.061706606 -0.351762 0.26036677 -0.41875693 -0.6876007
什 0.49964347 -4.8488493 -1.9074184 2.2239277 3.028918 0.6885704 -1.8464758 0.06933225 -0.83037204 0.94030297 -0.8399985 2.479579 0.26990184 1.0989616 -1.4629524 1.267161 -1.1993402 -0.34864476 1.1574172 -3.0001473 1.3197803 1.2795253 -1.7349664 0.60085154 -3.6023166 0.58309454 0.8422297 -0.9639815 0.2919013 -0.53197676 -0.4467705 1.5722908 0.35004875 2.6646733 -1.9974424 0.3088181 1.1989112 2.5714612 -2.4014335 1.6241282 1.4622601 -1.004645 1.1467341 -0.939106 -0.966449 -0.034495465 -1.7929461 3.084768 -0.0069297957 -1.219599 1.5053217 2.206127 -0.14133482 1.0017743 0.8312475 -2.7207716 -0.08988189 -0.26830336 0.7785836 0.30051085 0.80088836 -1.0385548 3.7525043 -2.2846682 -1.9297558 -1.0203835 1.837685 1.3110708 -0.308673 -1.0851206 1.2228273 1.7231522 -1.1893686 1.3045983 -0.4792261 0.2470947 -1.1357589 0.12419884 3.115188 -0.0867393 -0.09130551 -0.34796187 0.39078 -1.1662737 0.80533373 1.764452 2.487562 -1.0157461 -1.818306 -1.6583714 -1.0224246 0.89018553 -0.80223304 2.2894523 0.4613704 -1.4280535 0.16563144 0.50556976 1.0566814 1.5593243
借 -1.5662491 -0.15889136 0.61996835 0.7695687 1.1575389 -0.7783621 -0.42615923 -0.826892 -0.0698244 -0.6566961 0.053332634 -0.020771194 -1.0124557 -0.6511743 1.2141088 -0.18508199 1.8381875 -0.23993947 -1.3502883 0.9908619 0.14694402 -0.012495921 1.4432412 0.35484082 -2.5267324 -1.6171106 0.58253527 -0.5663985 2.7275348 -1.0733875 -0.5777081 0.9235527 1.1106341 -0.19501665 0.1183174 -2.3645318 -0.5241051 1.0178096 -2.1650822 -1.4430637 2.258642 -1.6214951 -1.9676775 0.24340084 -0.54592216 0.6765301 0.7521981 0.08063365 -0.7469933 0.91027707 0.08013125 -0.618411 -2.3068852 -0.7601194 0.44456646 1.904214 -0.996558 -0.8470919 0.9419817 -0.14702944 0.14144525 0.13248612 -1.399956 -2.738221 -1.680519 0.10404695 0.043134764 -0.39362666 0.2567625 0.22374012 0.6728788 4.1325192 1.0235652 1.8804531 -1.1734278 -1.0515275 -0.82843584 -0.405631 -0.8297703 0.67027384 0.713987 1.6098182 0.40843743 0.11138269 -0.1638284 0.55023324 1.1001711 -0.6712295 -0.787773 -0.7533989 1.2091451 0.41385227 0.66292584 -2.2099278 0.6587641 -1.8768431 0.11147401 0.13651069 1.1607805 -0.97986037
？ 0.5745701 -0.5426027 0.96912664 -0.37515327 -0.5319722 -1.3600279 -1.0813092 -0.5363619 -1.6773587 0.07797824 1.3029568 -1.8539702 -1.7508873 -1.0299345 1.9266155 0.95349157 -0.7230961 0.7066931 -0.497233 0.94592375 1.3848802 0.03352997 0.17782322 -0.21910317 0.39565438 0.75217813 -0.12116797 -1.3828056 -0.98212683 0.42721108 1.1556742 0.79062605 0.88718814 1.0774646 -0.36910412 -0.326133 0.0957201 0.8758973 -0.98830265 1.337286 -1.0696056 0.15440269 -0.845152 -0.99709296 0.74246144 -0.08021295 -0.67645 -1.0925665 -0.15863262 0.11158508 -0.8278105 -0.004790001 0.7959327 -0.027728302 0.33168206 0.16836567 0.8396117 -0.43648136 0.45628464 0.26923174 0.06699554 -0.9023548 1.018003 -0.3202702 0.048063822 -0.32708085 0.2107969 -0.83073175 -1.1544574 0.34397155 -0.82601863 -0.6354609 0.008008146 0.39374912 0.5088078 -1.3641638 -1.6415813 0.24602266 0.8331842 -1.1572016 0.26055658 -0.30420732 1.4228467 -0.6930988 0.25222886 -1.5585717 0.030909 0.07919348 -0.17511445 -0.45576587 -0.40581515 -0.25712577 1.8041923 0.19649304 0.7852075 -1.1052326 -0.37217247 0.5158841 -1.0754737 -0.4613956
微 -0.54205704 -2.3589702 -0.32342008 1.9754951 0.5969661 1.6936933 1.5851773 1.011364 -2.0450113 -0.007240768 0.3131754 1.8113391 -1.5061975 1.0668191 0.56235665 2.1140413 -1.0928539 0.31919816 0.38988367 -1.2069817 -0.76616937 1.2686199 -0.47945055 0.53311944 0.5214575 1.8054006 -1.9286325 -0.24234717 -0.28759515 0.60143983 -0.37306368 1.2702315 0.7738499 -0.908416 -0.58862126 2.0972528 1.9856403 2.2811751 -1.1650038 0.20720226 1.3747618 0.7433883 -0.33689556 -0.9082518 -1.5239807 -0.3482841 -2.117172 -0.18550023 -2.2161157 1.5591631 1.6785294 -0.65582484 -2.029231 3.0701435 -1.0680312 2.0710301 0.53505033 2.2962246 -1.9088424 0.538448 -1.3797026 -2.4724708 2.2864203 1.7691509 4.080631 1.4013369 -1.0312699 -0.85335827 2.7428076 -0.03706347 -0.2848423 0.75497836 -1.356962 0.1937647 1.3001894 1.4455045 2.0448017 -0.08217552 -0.9437476 -0.3584319 -2.1440465 -0.80220795 -1.5723433 -0.2576466 -3.0702286 -0.11641176 -0.4866527 -1.9860953 -2.0521934 -1.5337292 1.815932 0.05471148 2.2657113 -0.22005577 -1.622826 1.9077387 0.530247 2.454755 -3.8565452 -1.7874054
的 -0.99879 -0.9608638 0.5988609 0.3107125 -0.023787567 -1.7134553 0.27945963 -0.33975664 0.48280525 0.4290372 0.29244736 -0.34888157 -0.71384364 0.4292542 0.14866522 -0.3702171 -1.8332161 -0.012603592 -0.121247835 0.53033596 0.67478585 -1.131514 -0.0077907844 1.3726811 1.1615393 -0.48556912 -0.65392095 -1.4393922 -0.93680936 0.33378112 -0.47198594 -0.29077044 0.053400867 0.18879074 0.059375633 0.70285153 0.06419518 -0.7951818 -1.2670408 1.3885381 -0.41225043 -1.1494629 -0.0037256319 -0.40312374 -1.2407159 -0.21451594 0.27475297 -1.1025317 0.44434065 0.25658554 0.5455499 -0.4036591 -0.017664254 0.9250432 0.27697387 -0.4570282 0.27295992 0.43365294 -1.7309049 -0.027259253 0.412341 -1.3068094 1.318075 0.9944345 1.0347713 -0.12694585 0.22041954 0.09014648 -0.74864084 -0.10172449 0.93827856 0.60625356 -0.58752155 0.13608006 1.1039473 -0.22111958 0.015580071 -0.54629195 0.05156287 -0.75873536 0.89539796 -1.6956788 0.48922226 -0.8670036 0.12461827 0.07550576 1.6180762 -1.9187868 0.047858894 0.65676814 -0.20027547 1.3288426 -0.6931029 0.29061717 -0.6627008 -0.6560989 -0.6878348 -0.37587136 -0.08607223 -1.0895239
贷 -1.3558792 -0.06334145 2.2315342 1.068495 0.72050005 -0.29558718 0.10816419 -0.78094274 -2.4370487 1.1524292 -0.9260346 0.38909346 -0.03576708 0.38426802 3.546444 0.3318831 -1.831994 -0.23097186 -1.3132178 -2.7433684 0.94496226 1.6109568 -0.7582398 0.47672862 -0.49306023 -0.76862186 0.62771547 -1.409375 -0.23210895 -1.1767186 -0.077812076 0.6057743 -0.60385984 0.07322778 0.97375387 0.87910235 -0.49762115 0.45997077 -0.7656131 -0.30544728 1.1875894 -0.37678975 -2.1900494 -0.21520315 -0.91316885 2.4330175 2.0546305 -0.20531379 -1.3698472 1.377428 -1.9556376 -0.87650543 -1.5602996 -0.16746983 1.7195628 -0.05692726 0.34820366 0.20072764 -0.99078673 -0.49622175 -0.6821926 -0.23534131 0.5833992 -3.6329753 0.8249766 -0.59142554 -0.5756764 -0.2855076 -0.065567024 -1.9305793 1.2184802 0.8616982 1.9501158 -0.8978764 -0.97771686 -0.75132674 -1.9619274 -2.6512733 -0.7934997 1.7561718 0.3366224 0.3613834 -2.593448 0.5053249 -0.2514223 0.23952818 -0.9113843 0.22921251 -0.19407134 0.394805 2.2288342 2.3345325 -0.3161478 -0.11627448 -0.39985523 -1.2131099 1.2228973 3.506036 1.0377126 -0.18271346
了 -0.5263027 -2.365727 0.18164463 -0.9666347 1.0384316 -0.27809358 1.0262082 -0.17666912 -1.4288932 0.09196978 -0.43963653 -0.7872431 0.16568828 -1.8479298 1.2971598 0.5429024 0.43952638 -0.94954455 -0.77691716 1.3920083 1.5687009 0.4210385 -0.061083045 0.32818758 -2.0416758 -1.8771753 0.16055556 -0.51481 1.7761546 0.42895678 -2.9318063 0.17848976 1.0054682 1.1057706 0.39350888 -0.699595 -0.5072837 -1.2891061 0.5776426 0.78974444 0.54871804 -1.1744101 1.590294 0.9288233 -0.7873311 -0.35890663 -1.197615 -1.2014447 2.1461668 0.5008463 0.4470292 0.37905604 -1.5307801 -0.31992847 -0.053091764 -0.45456278 0.14830819 -0.20157441 -0.20337138 0.92519325 -0.7215387 -0.058143318 -0.9560332 1.5210071 0.069715396 -0.0243087 -2.18822 -0.65884006 -0.18429683 1.6405169 0.10463652 -0.92381185 -0.6321151 -0.40127277 1.3121537 -0.12812977 -1.1346451 -1.1925752 -0.64877015 -0.89916223 -0.37467173 -0.49919194 -0.3915959 0.1134336 0.6333039 0.6481974 0.35080883 0.1740605 1.3175948 1.1781383 -0.13510077 -0.08917087 -0.10827889 0.4306387 0.5588495 1.248729 0.514602 -0.6304947 0.86244935 0.12662601
为 -1.3104424 -2.9358175 0.33073935 3.030141 -0.1723508 -1.774635 -1.1532329 -0.24179523 1.1713862 -0.7279344 -0.88520813 2.2507274 -2.8281958 -1.0576086 -0.009184296 1.827835 -0.9072058 -0.41292045 -0.97695756 -2.4146469 1.7725515 3.976893 -0.2696168 1.8953857 0.4614621 -0.31541055 1.4784015 -0.42804846 1.2402546 -1.1947085 0.7031119 -2.8415582 1.1141185 -1.6694444 -0.037890274 -1.4370947 2.3171148 0.48515546 0.09779449 -2.1740272 1.7820448 0.9029913 -0.26975426 -0.0058295503 0.6392514 -0.31890145 0.69114894 -0.42815542 0.032644648 0.009468966 -0.71812105 -1.4490842 2.699679 -1.149007 -4.0729914 -1.5735594 0.16399947 0.15606843 -1.6805435 0.031928275 -2.9308681 -1.1876825 1.7503307 0.869568 -0.5186651 1.0094426 1.4161587 0.97668034 -1.5723356 -0.41537476 1.2575548 1.1177099 1.7278919 0.47342288 -0.4365402 0.7280955 -1.4461886 0.39872974 -1.6490103 -1.5560606 -1.5991735 0.8583506 0.047073316 2.4911714 0.03189862 2.2219782 -2.3833737 -0.09041479 -1.1676542 2.413773 -0.74747646 0.31109193 1.0760432 0.9910824 -1.398945 0.27808228 3.6522686 -3.6745496 -0.81872195 0.08076453
是 -0.25959378 -2.9059782 0.7013809 -0.31025073 1.3224164 -0.52620304 -0.17691843 -0.4811228 0.9236629 -0.5960225 -0.37257415 -0.27644318 0.79855084 -1.5817952 0.2640709 0.67018366 -0.4387828 -2.0364237 -1.1708665 1.2278365 0.06744162 -0.21436368 0.064587966 -0.18432117 -1.3384644 -0.48868102 0.6672182 -2.73248 0.09635186 0.03527966 -0.7386301 -1.3768349 1.0766746 0.09329791 0.39376312 -0.20775908 -1.3275 0.106888525 1.1221154 0.23553185 0.6906442 -0.40777612 -1.9597168 -0.68542796 0.7908166 0.4167266 0.07383461 -1.8775109 0.30915573 -1.0477028 1.5196311 0.4559703 -0.77462965 -0.7458091 0.80531025 0.85454047 -0.4609645 -1.4542707 0.35961565 -0.65207905 0.56272805 0.060636215 1.0263851 -1.2589811 1.5877583 0.07817054 0.76372766 -0.05477915 -0.69207704 0.8328689 -0.20260029 -0.84735435 -0.18372558 0.9887919 0.8262134 1.0669627 0.40181774 0.030050728 -0.7117168 -0.90841323 1.0034144 0.042968564 0.43509904 -0.16667022 0.84665227 0.40637553 0.43584725 -1.2693413 0.027177127 0.74677503 -0.9389734 -1.9585769 -0.08928559 -0.49493062 0.24636942 1.0534067 1.0791974 -0.020100193 1.6840401 -1.8805313
没 0.55685365 -1.5700885 -0.07202949 0.8889083 2.6730635 0.24030119 0.82145613 -1.8529886 2.2412803 -1.5950074 0.37099034 1.3944871 0.2670472 -0.6312384 -0.7346228 -0.9111583 -2.7747276 1.1274049 -1.972923 0.063551 1.6027349 2.1869798 -2.1791859 0.7377398 -1.0002241 0.8229521 -0.71363866 -2.0007746 0.7873741 2.122777 -1.0645957 1.3528355 -0.4089905 0.602438 0.46873656 -2.8303254 -0.39525735 -0.92298603 0.1431246 1.3791862 2.12449 1.178602 0.178028 -0.57352626 -2.801115 0.880047 -0.3200787 -1.7737916 -1.7988894 -0.7435485 1.3700614 0.3233905 0.77944046 0.7317279 -1.5442739 -1.1786658 0.2819823 0.9209816 -1.3642341 1.5432631 3.4323828 2.3287694 -1.0965115 1.9526556 -0.3014471 1.8460971 -2.8200393 1.0208623 -0.25258493 1.7606544 -1.0326724 -0.8625538 0.83511597 -1.6461176 0.52373177 1.3685774 -1.1052309 -2.4252727 0.083937824 1.9450594 -0.82105434 0.5673024 -2.6499763 1.6895199 0.8254423 -0.12268094 0.941886 0.7862678 0.89601195 1.9075531 -1.5169103 2.9371407 2.7796404 1.4594425 -2.313141 -1.2681739 -0.3510809 1.300392 -0.6429778 0.29608366
有 0.03691505 -1.6259755 0.31532565 1.033127 -0.3554985 -1.3939736 -2.008755 0.6269776 -0.32778582 1.6408067 0.26561913 0.8243933 -1.8515772 -0.6323746 1.9472352 0.059282757 0.54360324 -0.9956109 -1.1531147 -0.41797063 1.942801 1.8155102 1.6602664 2.7032785 0.06926455 -0.33541545 -0.44324902 -0.88145524 -0.58180255 0.89584255 0.91943 -0.52842176 -0.49565324 -0.7851175 -1.0523275 0.8507982 0.9717941 -0.27096692 1.3182396 0.6316423 0.7611688 2.383864 0.62797314 -1.2368575 -0.83989936 -1.104541 1.0960675 -0.9421316 0.13285285 0.29568887 2.6306646 0.4549504 -0.7223545 0.5216773 0.31680652 0.22934562 0.2858508 1.438445 -0.0881593 0.7496648 1.3156397 1.1871586 1.8896499 -0.24805172 1.0667313 1.1427517 -0.7416815 -0.13820623 -0.72576725 -0.5407823 2.3144238 0.39657405 -0.7279204 0.3833289 0.29616246 -0.7308579 0.031052424 -2.671839 0.50200754 -0.97748214 -1.8560256 -0.45612812 0.5088487 1.0091933 -0.79700416 0.80732447 2.2183921 -2.032443 -0.42593247 0.9806031 0.09435476 -0.6225977 0.20893994 -0.39253378 1.1631052 -0.17228635 0.8715957 0.6696346 0.76315165 0.40436727
怎 -1.5998847 -5.3298965 -1.2024965 2.6191933 2.7403457 0.15819861 -2.3976877 0.27553347 -1.6059912 -0.636112 0.79757226 -0.45779043 -0.7470031 0.47712702 0.7217518 0.018913664 -1.3131499 -0.76741976 -0.40226635 -3.0855124 0.18884347 1.2693772 -2.2110326 -1.3190702 -2.3921235 1.8115021 1.7555836 0.49068904 1.2496787 0.64469373 -0.023537504 -1.2848313 -0.54742366 1.8868961 0.2671156 -3.1348047 -0.60337865 1.1805555 -1.8876355 -0.16466491 1.3849251 0.27388236 3.422945 -0.18105118 1.650597 -1.1483681 -1.9983796 1.3989164 0.08819109 -1.9161991 -0.46224454 1.8060715 0.6570172 0.006444342 1.3887957 -0.9815839 2.852094 0.7466251 0.21167807 0.72218126 -3.3853345 -2.4740222 2.9108422 0.6630024 0.6370824 -0.45640886 0.6746132 -1.0052143 -0.9983931 -0.7052111 1.4830056 0.6152762 0.104347356 0.624278 -1.1551243 -0.5733368 0.11590746 0.6105402 2.8042505 -1.9566983 -0.632749 -2.505755 -0.15997176 0.47761935 0.93190825 1.1636518 -0.79914385 -0.11023626 0.19007616 2.1721187 1.6279732 -0.64207035 0.49363786 3.0478323 1.8756887 -0.01567741 -0.10337808 -1.6872094 0.45878848 0.15606843
吗 0.93337905 -0.36671066 1.6956801 -0.22061299 -0.34862235 0.48377994 0.63245684 -2.3234546 0.058468845 -2.1134777 0.2577638 -0.7751534 -0.46564218 0.81964695 -0.071812615 -1.3969213 0.3925618 0.5205702 -0.3001851 3.6260214 0.3178062 -0.9738964 0.10184599 -1.0350333 -0.6184856 1.048217 0.97618645 -1.9441597 -1.2436117 1.1631645 0.63155025 -1.0281866 -0.76634526 0.25508165 1.5831658 -0.7574315 0.67699873 1.9228411 -3.2035885 0.30773664 2.0579078 -0.78373414 -1.3075092 -0.4869447 0.29539403 0.15234919 0.7209013 -1.4607049 0.5043476 -1.2436141 -1.6421635 -0.3644691 -2.3197765 0.88368624 0.23552078 -0.27568182 1.7761636 -0.29352584 -0.97835964 -1.2466502 -2.3265364 -1.6878664 1.0830687 2.219012 1.6702487 -0.20782724 -1.2492167 -1.4174681 -0.28250587 0.67679185 -0.54433846 -0.39672166 -0.26116318 1.9970351 -0.33172113 0.7833049 -1.0061271 -1.3530523 0.2285444 -0.33346367 1.3510245 -0.75964075 0.0042222133 0.90169543 -0.124289624 -1.9495037 -0.7104502 1.6020521 -1.5469683 -0.45069796 -1.3830098 -0.4312383 -3.807158 1.4364178 -0.6618966 -1.9218903 -2.902819 2.589905 -0.18610103 -1.7587506
0 -4.125308 -2.60214 -1.6980412 -1.7684153 1.0638528 0.28674918 2.4888623 -0.60587066 2.0268152 -2.6150186 -0.30609444 -1.0181509 0.66424334 0.14992265 -2.379674 1.5908742 1.7012995 0.72071356 -0.36641476 1.1149293 -0.75048816 -0.45239034 1.0207514 1.5389167 -3.0497801 -2.4304588 0.63237125 -0.6332546 -0.3101545 0.07644199 0.29501826 -0.897931 -0.35997134 -0.58313596 -2.1227815 -0.5825611 1.532231 -0.50659716 0.6161842 0.4524312 -1.3806545 -0.7228188 -2.4061513 0.22262733 1.5471942 -0.9693057 -0.9328632 -1.3215494 0.6666793 2.8229382 -1.8156842 1.0492382 -0.2501357 -1.2130158 3.1145942 1.0900126 0.6532012 2.4018517 0.4886644 -0.13975485 -0.20549552 0.34020334 -0.15098715 -1.1159793 -0.7656343 1.5614662 -0.49037042 0.13061059 -1.7483393 0.1619422 1.2070829 -0.9889857 0.66550016 0.14671701 -2.0481591 1.243634 0.27820197 1.3929908 -0.8903405 1.1808006 1.2671671 0.79780984 3.077284 2.0487578 1.0025789 -1.0088782 -0.24925627 -1.0624162 -1.0422057 -1.0565642 -0.17930466 2.4934897 -0.025032561 -1.2719824 -0.1802236 1.1507995 -1.8826551 -1.3614545 2.8746557 -2.7494633
可 -1.3909477 0.62938184 -0.07310951 0.6858553 1.1212769 1.2988652 0.2444705 -1.3888413 -2.5368526 -0.64363176 1.16181 1.0379256 -1.9611766 2.004739 -0.22017696 1.1242111 1.7015907 1.2071569 -0.2808402 -1.8995136 1.4482024 -1.0110996 2.7063005 -1.1346754 -1.1293651 -0.9358005 -0.6213036 -0.87567973 0.38397306 -1.6407759 0.34830546 -1.1956844 1.4162813 -0.23467803 0.9840048 0.56957704 -0.26416904 0.178235 -2.2860496 2.314223 4.8764014 -2.4337845 0.3501308 -0.08410877 -1.3008686 0.084906995 0.22030258 -0.43366867 2.7001796 -1.1406912 1.5061129 -0.311225 -1.1767467 0.51730686 1.0362674 0.43597177 1.2539641 -0.70992607 0.5739469 -1.534344 -1.5188704 -1.5953876 -0.31278497 2.368569 0.5443767 -0.16030447 1.6307458 -3.2127335 0.09124084 2.681586 1.9640106 -0.6076275 -0.3508085 -3.0733027 1.6244274 -0.9354999 -1.7281789 -1.4787471 -0.2187606 -0.3108801 1.0739985 1.5966834 -0.41438928 -0.55617154 -0.52604616 -2.8177764 1.9600776 1.2510327 0.31938753 0.18092701 -0.4714702 2.1701565 -0.10877321 -0.74718744 -1.7858456 -1.7750115 -1.3597476 -0.93005234 1.4816631 -2.893933
粒 -0.59152853 -0.6635362 -2.4689448 -2.9552996 -1.4611808 0.73369133 -0.27458027 0.8247189 0.78455037 4.4756317 1.7545451 2.164412 1.6659306 0.384507 0.30269283 -1.1991608 -1.0501783 -0.9503208 -0.88566744 0.35784873 1.0879421 2.2380397 0.7067537 1.2722524 0.9965728 0.7004011 -2.0411904 0.33222377 -0.8724242 -2.5138655 -0.64037037 -1.0310625 -0.15796493 0.48204163 -0.15838218 -1.0043337 -2.5120544 1.7571385 -0.5736035 4.457168 0.6001339 1.5550562 0.52916783 -0.59924424 -1.215546 -3.1942441 0.8346116 0.5798744 -2.0953174 -0.9791316 -0.16050126 0.74675584 -0.9839601 1.109179 -1.336371 -4.295215 1.7285315 0.6969307 0.8161603 2.052571 -1.4797713 0.025303641 -1.629372 1.1855382 1.6303233 3.0336134 0.0768287 -1.9107289 -0.8233384 -1.3254855 2.9293902 3.1961017 0.348042 0.096988805 0.4142616 0.7567411 -2.1162398 -0.25935814 1.8743513 1.3372501 -1.3451989 2.5944111 1.093896 0.28476325 0.040965956 -0.97851866 -1.9438466 -0.42803794 0.17440313 0.047199715 1.304842 0.5216231 -0.68982303 -1.084577 -1.7027384 0.036031496 1.4866796 0.073375225 -1.8429232 0.8847323
一 -4.293985 -2.9201186 0.04488072 0.039400462 3.181333 -2.616585 -0.18504225 2.9208405 1.4959257 -0.2597196 -0.7044491 -3.5026414 1.12347 -0.7521234 -0.70823115 0.63814884 2.0126932 -1.4452544 -0.6969703 1.4083623 0.68063635 -0.8702885 1.5934966 -0.30041218 0.24711831 0.6047622 0.69294137 1.8489716 -0.6207538 0.0023484516 -0.35003966 1.5045161 -0.5100465 -0.63377273 -0.43016624 -2.5000615 -0.987006 1.5831562 0.1662553 0.936773 0.5321463 -1.9315094 -0.24275352 -0.7794753 -1.4188063 1.4512466 3.6984556 1.5097708 4.1688495 0.70291376 1.7762676 0.63974607 -2.8665347 -0.13426852 -0.43111196 0.56151587 1.0708002 0.3638297 1.0945307 -2.6076813 -0.53034914 0.35348892 1.336671 -0.32461336 -0.18682854 1.8855885 0.0084717665 1.8600993 0.5258068 1.3414875 -2.8383005 -0.034344353 1.065311 0.2780201 -1.8824878 -1.2989154 -3.0710814 -0.18224482 0.7387079 -2.9484246 2.5251029 0.7845137 -0.6401272 0.7340427 -0.009217903 -0.10335551 0.33943552 0.9160334 -0.5264072 0.7671398 -0.87002903 -0.17916027 1.3384457 -0.25943395 1.0651053 0.9618963 -1.8321322 0.75271916 -0.81040037 -0.88620424
以 0.75146955 -0.4969137 0.6306985 1.369445 2.0332325 0.034077097 0.23692429 -2.031584 -0.01881963 0.8885627 -0.5958759 0.08216236 -1.5925046 -1.7657803 2.2848854 -0.02974508 -0.34389877 -2.868977 2.8436363 4.6985693 0.69135785 0.16407609 -0.27856633 0.40252772 -0.45980015 -1.0610443 -2.9332244 0.4960259 -0.09371008 -2.4270349 -1.734278 1.6467037 -2.4525697 1.4157968 -2.554543 -0.02960784 -0.56032103 0.17401913 -1.5577356 0.96265197 -2.20667 0.06707595 1.2212889 -0.81048423 0.8108725 0.47128502 1.9750427 0.48496512 0.21560462 -0.7509259 -1.3432306 0.31723523 -3.349093 -0.55661815 -2.0317 2.1537693 0.12865688 -0.91907436 -1.1797924 2.3563979 0.1755106 -1.7727463 1.1856842 -2.1848369 -0.5185849 0.586137 0.059162688 0.28518403 -0.59416825 2.375561 1.0344076 1.0819373 2.5150192 3.0513766 0.62158525 0.0008002478 1.4530364 -0.7285308 -0.7215504 -0.8804754 1.5000792 1.0725784 0.5063511 2.3955092 1.2755507 1.109679 -0.071434215 2.2493746 -3.722333 1.2140685 0.24067847 -0.43110105 0.8372807 0.83918124 -0.30756822 2.301975 -1.9642045 3.146418 0.9822134 -1.6124953
能 -0.7952573 0.41344258 2.0345247 0.9136737 1.3966901 2.2350268 0.06972888 -0.13142285 -1.7039 -0.56654996 -0.64246285 -1.4701676 -1.5147184 -0.3412154 1.6543899 1.3164088 -0.45528752 -3.3032413 0.08392846 0.53548265 2.2349632 -0.091644645 1.0519133 -0.49708188 -0.7001156 -0.31669348 -0.7067535 -0.29063466 1.7037051 -1.6852305 -2.7251549 0.42688867 1.8894413 -0.12901545 -0.35239458 0.16523667 -0.23861578 0.89609486 0.6112759 2.075773 1.7501107 -2.3104775 0.5073816 2.7308567 1.2775582 -1.2681123 0.18463178 2.7626925 0.09394459 0.9081488 0.6880668 -0.99468714 -1.8074069 -0.43064612 -0.5863882 1.0765551 0.2331321 -0.89180017 1.2554195 0.41830343 0.77291954 0.57128453 0.33472618 0.3485682 -0.09845934 0.05096142 0.6701461 -1.3339626 -0.4107084 2.207142 1.6390165 0.03318157 0.98041266 -0.4212037 1.2443157 -0.24988514 1.039969 -1.7611794 1.4648942 -0.31399602 -0.5317987 0.95936203 1.2847234 1.0775794 3.2846284 -2.0651917 1.2713679 1.2923955 -0.4653083 1.3420055 -0.0033751836 0.36399648 1.9982499 0.5910717 -1.153374 1.7663609 0.5450306 0.40503815 0.41866544 0.5611892
多 -0.3349412 -0.37502843 -1.3487449 -1.6751484 1.439271 -0.28840694 3.1328456 -1.3165313 1.7359381 -2.8409648 2.2360418 -0.7312905 -3.0128863 0.44538793 -0.8054843 -2.2250834 0.09596652 1.5723532 -1.2052794 0.57617575 0.7339636 -2.0079775 3.6331124 0.6195441 -2.3151639 2.1746864 -1.1756004 -0.37509507 0.34686244 -0.67079186 1.2074362 1.267324 1.7816558 1.1828732 -1.5492967 -2.7762818 -2.1134887 2.3757265 -0.90718794 0.46465442 0.1733938 -1.0756816 -1.007969 2.790504 -0.5508851 2.6552866 -0.48806268 -2.327678 0.2874242 -1.1221588 -1.5106467 0.06932529 -2.1726258 -1.3841687 1.2155234 1.0901028 2.105328 -2.7720058 0.6734571 -4.6545043 -0.9549551 -1.1507384 0.4631858 -1.601586 -0.64117837 1.2565362 -3.8788218 3.3288784 -1.3648684 -0.7958225 -0.40366396 -0.5185172 0.10490091 -0.4190057 -1.2805191 -1.173861 -0.8624849 -0.67447656 0.52667254 0.27042633 -0.33475766 -1.2301533 1.2691771 -0.30315912 2.1107955 0.673708 1.6648024 1.0256457 -2.6259186 -1.7908267 0.6968236 -1.4920232 -1.1605902 -0.025551097 0.8506271 1.9066354 -0.47247064 -1.3489492 -2.1530817 -1.8134204
到 0.14400785 -0.08941789 -0.27665946 1.1976895 0.22629727 -2.285251 -3.1643293 0.10317411 1.2240196 0.39859423 0.64547974 1.4762349 -1.435827 0.6211123 1.4921135 -0.34567153 2.8555415 -1.690727 1.8268994 0.015258485 -0.13834724 1.4619454 0.90189373 2.1067111 -2.9300861 -2.9251323 0.40670314 0.29730216 -0.8388089 0.88777983 -0.26385394 1.734195 1.7415549 -0.40908355 -0.5124924 -2.6999252 1.0554458 0.24156284 0.048016466 1.0605636 0.28015104 -0.3571238 -1.3266975 1.1013465 -2.225303 -0.7129027 0.29908317 0.6234668 2.572311 -1.3484964 -2.379812 0.19155703 1.0899404 2.1014714 -0.7435336 2.2713501 3.8009129 -1.4776527 -0.68366927 -0.13226935 1.7225606 1.7306734 0.92725986 -0.15519118 0.68369424 -0.9185135 -0.839841 -1.416952 -0.63937485 -1.7848407 1.4303445 -1.1215034 -0.83940214 -0.68824935 2.768708 2.2725577 0.64769614 -2.3578687 0.6480921 -1.9742012 -1.5035403 -0.54774565 0.4004044 -2.129054 -0.38161442 0.21152148 1.6230857 -0.35108975 -0.9200295 -0.020098593 -1.1721127 -3.5444007 2.783431 -0.5851589 -1.7074827 -0.66887623 0.41841495 0.60721976 0.38672715 -0.5595383
电 0.94650084 -0.47090596 -1.5236312 0.72638464 -1.0170712 -0.72830087 -0.40402973 -2.922634 -3.0942848 2.3835692 3.5401402 -3.5565226 -0.2096562 -1.8877622 -0.46393406 -1.2760817 -0.036421426 1.619413 0.81941605 -2.2703784 0.17724025 1.8613051 -0.3985268 1.8217871 -1.3741769 -0.32819486 -0.886069 0.5343927 2.4616802 -0.45245257 2.6609685 0.5842354 -2.4156013 1.7247194 -1.5881604 -2.1103842 1.8235629 -1.7111816 2.5213468 -0.11581005 2.1885653 -2.1412516 -0.67414373 2.4615366 -2.6852846 2.471927 1.3539398 1.8798581 0.08896142 -1.3059224 0.066458486 -3.863795 0.5109694 0.06234105 -0.9343256 -0.852777 0.4874101 2.1959844 -0.76931995 2.579404 -0.16452838 -1.5892545 -0.9187719 -0.7589289 -2.180786 -2.7956927 -2.0061307 3.2952054 -0.744868 2.5136049 -2.392481 -0.03683622 -0.85961795 -0.69974154 2.282148 -0.5458037 4.7428565 0.64538765 2.3098974 -4.4840956 0.5886835 2.3801053 -2.7792397 -2.6614854 -0.38776353 0.2080485 1.2571139 1.1268352 -0.5146471 -2.048428 1.0665731 -4.080542 -0.83304805 -0.56078374 0.055868693 -0.4564962 0.6241122 0.5920295 -2.8381906 -0.4410524
行 1.1203265 2.565607 0.40011245 0.071853235 1.9505898 -1.3630209 -0.45051387 -0.49315724 0.21663968 0.2578594 1.1772014 0.9076459 -2.39474 2.7797046 3.3122249 0.7203617 -2.227989 -0.61054635 1.2733277 3.0325844 -1.9780663 2.1498911 -0.74901557 0.3749936 1.8056709 -2.033298 1.2913222 1.5487751 0.058471926 2.4798486 -1.8300577 -1.7762299 -1.3151191 2.0511935 -1.5002443 0.8602324 -2.2095804 1.4223123 1.7025671 1.6982414 0.5430266 0.5158228 1.3984674 2.335803 1.3605685 0.8087857 -2.0836205 -2.1390839 -0.047333825 -0.44153133 2.796947 -0.37904412 1.0089867 -0.6605892 -1.1851134 0.30213538 -0.40315643 0.78149295 -1.6778803 -1.5450718 -0.17195037 1.3354739 2.5598202 1.8278203 0.68936235 0.44932926 1.4697683 -2.1586387 0.99264854 1.9035081 2.4783416 -0.9517426 -1.5809724 0.048491117 -1.5917989 0.49125814 0.53510344 1.0023563 -0.8741117 -4.8502874 2.6595707 -1.6077985 -2.25246 -1.7763906 0.814856 -0.32157114 -0.60485536 -1.0392101 0.43041313 -2.847267 0.3761075 0.14527053 0.06075449 1.0922207 0.3155972 -1.1223797 0.71490264 1.9091098 -2.0309002 0.776753
话 3.4170039 -2.2651224 -2.0982847 -1.6962856 1.8507818 -0.050711453 -3.0131502 -0.28317618 -0.074789144 1.4020922 2.642888 0.9219155 -0.4343461 1.1650296 -0.20571077 1.2666394 2.7204313 -1.8260165 2.2818599 -0.010084865 1.3921977 -0.17824496 0.768828 2.0001779 0.041809566 2.1162715 -2.3094676 0.9017201 2.4917169 -1.3360606 3.2982538 -0.8209781 0.017042201 0.442715 -1.7978894 -2.5872874 0.026128743 -1.2467647 -0.9246 1.4648035 0.93598694 -0.04003808 -1.2805991 2.1360798 2.2075636 2.0605052 -1.6857935 -0.18155788 1.1907798 0.76231587 2.4247565 -1.9950361 -0.27416134 -2.1438303 0.92652017 -0.982991 2.983301 -2.2240844 -0.8958817 1.8184414 2.3647256 1.6008254 -3.5433507 -0.28821903 -1.9846044 0.79427516 -0.8767574 0.5917582 -2.6625957 2.5928671 -2.079106 -1.6392026 -1.251307 -1.5535202 -3.590261 -0.45029306 1.1178284 -1.3987911 -0.46757472 -1.0557511 -0.8926132 -0.59834534 0.25324014 -3.484829 -2.7956057 2.0255926 -2.6744597 3.624854 -1.6369356 0.54633087 -1.3093445 -0.35970443 -0.022415025 0.18805738 1.8706309 -0.782966 1.213682 0.95351523 1.9984812 1.081807
钱 -0.21532305 -2.6690927 -0.009212883 -0.14010581 -0.34076783 -0.08981155 0.15388407 -0.23244806 -0.20674798 0.8554433 -2.2728257 -0.9798609 1.6531217 -2.1491246 0.21459515 0.60103244 0.7132585 0.5464497 -0.9890779 -0.9311327 0.10934184 1.8979678 -0.4757957 0.5614624 -0.932503 -0.6465445 0.53016406 0.4000945 -1.9378984 -0.75868285 -1.4967824 1.5291884 -0.16373086 0.29291832 -2.571528 1.3405557 1.0714895 0.68489325 1.8468564 0.75999963 1.0646065 0.07222655 0.67059505 -0.654648 -0.839134 -1.1574667 -0.6729207 -2.1897302 0.06751026 -1.6097698 -0.46520525 0.72435045 0.029651998 -1.0945671 0.43243745 1.7405092 1.6982191 0.10739632 -1.618941 -1.2519608 1.7096863 -1.1496215 0.6554974 1.234157 2.4655154 -0.13555291 0.41529158 2.6216404 0.5271825 0.18683994 1.0188742 -1.2557617 -0.893039 -1.2827446 -1.3603352 0.6672968 -0.4297603 -1.9687909 1.5908211 -1.2832254 0.48003158 2.5502505 0.9012287 0.66243535 0.8784791 -1.8791326 -2.693909 2.0361269 0.08764335 -1.6559982 -0.4138317 0.97337264 -1.4701084 1.6720467 0.10915885 -0.9026279 2.010468 1.2882489 -1.6124839 -3.1549826
请 1.2751034 -2.946005 -0.9915786 1.2438127 0.2855718 -0.8511353 -2.0621731 -0.5225304 0.25314474 0.26480526 0.513154 1.2504574 0.66340864 2.4235787 2.5526407 0.1656204 0.27491266 0.8445912 0.799256 0.93599045 0.17868437 1.7656126 2.8910418 0.3677593 0.66623557 1.737218 -1.6124166 1.0604123 0.892292 1.7533714 -1.5470256 2.9380324 0.65738016 1.1156343 2.0282679 -1.3384732 -2.533153 -0.35252598 0.07727995 -0.5550139 0.48516294 -0.5204728 -3.0185826 -0.18779783 0.27356964 0.8689984 1.3781625 4.4011583 1.2786803 -0.37932935 0.44637308 -2.5760186 -2.1824741 -0.013365126 2.1231427 -1.1480385 3.0598962 0.16575724 -0.725822 1.8275018 0.9632113 -2.6212482 1.8368546 0.22955813 -1.3227538 -3.9544344 0.8968635 -2.2226918 -0.52258486 0.4204581 1.8294646 0.67603445 -0.7557089 -0.93427247 -0.320534 -1.7880856 0.057185285 -1.1017139 -1.8918903 2.3485742 0.7572232 2.4454367 -1.0366718 3.8382351 -0.92488074 -0.039575145 0.23034428 -0.6773534 -0.763853 -3.5948155 -1.7869779 1.0260066 -1.1293168 -2.952732 0.32698274 3.5855687 1.7072138 -0.36134255 -0.6938396 -2.0423512
时 2.330889 -1.2732637 -0.5823755 0.5592329 2.5754397 0.12649848 -1.1409116 -3.8041017 -0.096657954 1.873376 -2.08585 -1.0942436 0.5490036 0.2580956 -0.33417085 -1.8068839 -1.7338802 2.8525972 0.31204087 0.08959784 1.007285 1.7506795 3.2211332 0.0073816297 -0.71889114 -1.5654024 2.0982273 -1.266271 -2.8268735 -3.5182261 1.2215838 0.2499152 -0.7381522 -1.0466249 0.034159373 -1.6413922 1.1341012 3.3133576 -2.734465 -0.17088081 -0.5570565 0.36076233 0.0034769194 -1.3696266 -0.58893824 3.5760233 -2.1712418 1.930846 2.016868 0.11267902 2.746684 -2.9499812 0.5714744 1.7444475 -2.4571583 1.3220263 0.2912359 1.2328295 0.10951373 1.3082771 -1.6743875 2.1143987 -1.1385161 -0.42640373 -2.8757474 -2.6128755 -0.49842742 1.2664897 -2.766102 1.3882135 1.8056746 2.6045842 1.2924124 -0.7032508 -2.840547 0.614158 -1.9163362 -0.7857771 -2.3460195 -1.9222747 -0.80859524 2.0184236 0.9160709 -1.1929413 0.613526 0.7432669 -1.8360881 -1.5379711 0.7547303 1.802246 -1.5793663 -1.3546401 1.2170265 0.052803632 -1.7454746 0.8329008 -0.7056498 -1.5468116 -1.1944468 -2.2774808
银 -1.3902589 -1.9653401 -0.0667413 1.6265408 -3.0584745 -1.3556792 -2.1465485 0.03886206 0.56471586 0.45143968 2.1380365 -1.9152226 -0.1898834 2.241598 2.5395107 -1.1819986 1.2300696 2.044612 0.9216691 1.0577716 -1.8571947 -1.638861 -2.062566 -0.20862094 -0.74636656 5.5760474 -0.8005998 1.1026864 -2.6946616 -0.819215 -2.0592241 -1.146112 2.5444963 -0.18509719 0.67678183 1.7760719 -0.0007581237 0.8434813 -1.0215881 -3.0112617 0.87706804 3.030769 3.469225 1.0705162 -0.1749406 -2.232081 1.9204336 2.2634263 -0.25771192 2.731568 0.59770703 -1.363003 -0.43625152 -0.36520135 0.49954486 -0.8529129 -0.49121854 0.6282082 -1.3231441 3.1491106 0.7404114 -1.60141 -1.4436406 1.2594562 -0.30367142 -0.7136888 -1.1866373 3.2146266 -0.7026638 -0.6823745 -0.9906796 -1.2274344 0.64230406 -2.4004562 4.0506854 2.8223417 -1.9534807 -0.7260355 -0.35943106 -0.813597 -2.1373248 2.0742495 2.0277824 -1.4437777 -0.68852794 0.29838434 0.62738854 2.5269864 -1.6938431 2.8833637 -1.4509425 -1.8088939 -0.67327744 1.6266872 0.41822597 -1.5503229 0.59136456 3.570169 2.1768322 -1.6243132
天 0.82138383 -0.77242076 -2.6391108 -1.0245281 0.46475792 1.2548687 -1.8817983 -3.0673046 1.0663809 1.5416136 -0.1103637 2.6148407 -2.7032795 -1.4324926 0.72222054 -2.2044637 4.049865 1.8174236 1.6103863 1.6405778 2.519231 -2.8217833 -1.6112852 -3.3316374 -2.142098 -2.8741937 2.7076747 -1.6469367 2.04566 -0.060512267 -0.2756476 -0.2611582 -1.8374484 -1.0072337 -2.410138 -1.1558015 -0.36102626 -1.517147 -0.7051804 -2.9998713 -0.6919619 -0.031758353 -3.1495261 -1.0120667 -1.0073094 -0.87452936 -2.598984 -0.35422727 -1.162483 -0.30261624 -1.4265597 -1.3862141 -0.32872063 -0.58587843 1.5788367 2.4203975 -1.8665662 0.681541 0.14202222 0.4762981 1.1564937 -1.1149598 1.0356168 2.5165048 -0.23190947 -0.42489675 -0.49786735 -0.83258975 -2.418172 0.225605 -0.43288216 0.03739531 -0.69162834 -0.0541179 -1.5996345 1.6867484 0.22371371 -0.38847768 -2.0234833 -1.9280497 -0.7431911 0.17727286 4.5175514 -1.3897734 1.5154418 -1.276686 -0.9594734 0.36981785 2.1755974 -1.1315308 0.4736714 0.54645944 -1.2355397 -1.2949972 -0.88610303 1.3428329 1.1230391 0.07657059 1.0153837 -1.3156968
额 0.34379643 -1.1226155 -1.6138909 2.7756565 -0.9523548 0.15545927 0.4542697 -0.90890807 1.4513732 0.10747452 -0.74058956 -0.78078115 -0.017692348 -1.6378076 -1.0929356 2.2160113 1.8338621 0.87601227 -0.41687816 -1.8055686 1.6518247 -2.0177007 2.9584315 1.4966363 -0.3971853 0.083972186 -0.3805659 1.4949555 -1.0894009 1.5294293 -1.0118539 -2.1878786 4.200692 -3.464631 -3.1148322 -0.43469486 2.186625 3.1064816 -1.7954377 -0.88604856 0.0424518 -0.9439236 0.5778638 -0.72369885 1.9729694 -1.5968058 2.6300254 -2.5883815 -0.41928735 0.6996476 -0.25098398 3.5079937 -1.4044756 -0.3509924 -1.956537 -0.3732826 1.20132 -1.2884568 0.37158757 2.0768938 -0.5975321 -1.2268819 2.1298475 -2.2074575 0.39142507 -1.676858 -1.44199 -0.5082994 0.40097728 0.7747926 1.8899941 0.515248 0.8109673 1.2813861 -2.0730755 1.6720724 -1.6954343 -2.5708666 -0.5874052 3.2300832 1.7217386 1.5594941 -1.8825017 -0.63907444 2.1938324 -0.27568257 -1.5171187 -0.39466944 1.8199064 -0.6144644 2.4192836 0.93433857 1.1573858 -2.2261767 0.6690702 -0.21541618 0.44148916 1.9633353 0.6011433 1.488654
息 0.04288297 -1.0892215 1.3491417 -2.0345135 -1.4845487 -0.45505255 1.6437553 2.680088 -0.6653799 -3.435386 1.9090759 -0.31244266 1.4735916 -2.0148525 -1.860576 -0.33718386 -0.7608998 -0.9466503 0.6261553 -3.4673092 1.771266 -1.3887662 1.1725686 0.6914713 -1.251725 0.25341073 -0.016788246 -1.7564293 -1.7881733 -2.421008 1.8755453 0.91304547 -0.007079753 0.15714659 -0.16521445 -1.8324497 1.2560048 -0.10628637 -2.3694968 -1.0066751 -4.239723 0.19778438 -1.3479332 -1.4703778 -1.0421722 2.3168504 -0.4684742 2.3506095 -1.6440912 1.6916233 0.6096009 0.102058046 -2.7057788 0.49118832 0.2421429 4.7838664 -0.5123696 1.9452983 -0.7681745 -3.5886922 0.26393518 -1.5641285 1.9396561 0.4823397 3.2027295 2.1115444 -1.0860966 -2.8386338 -0.6168143 3.521518 -2.4243174 0.49002612 -2.5314372 1.3977003 -2.5143714 1.8142334 2.355592 0.24733512 1.190326 -0.75728834 1.1238574 0.43339315 0.06753322 -7.343516e-05 2.7697737 1.4093004 0.05704266 -2.068928 0.023920946 3.5077162 0.39937574 0.55807644 1.4438727 -2.1202345 1.7902766 -1.4899931 2.0413868 -0.21389818 3.1544242 -2.6302564
你 0.6538504 1.6050695 -0.91304874 -0.5130519 1.1894845 -0.44761068 1.0205125 1.9489671 3.8326356 3.7630842 0.71848834 1.3262771 3.029399 0.12776145 0.60711294 0.92340446 -1.4650562 0.67039937 -0.053644307 -0.38784778 -0.8946828 -0.3412801 -0.86879486 1.6301873 0.30241096 -0.3079122 0.6278102 -1.990866 2.2195866 0.28886482 -1.3636994 -0.48152602 -2.5396605 -3.6540608 -0.44718045 -0.40325144 -0.6733773 0.057285003 -1.965548 -1.3318529 0.7619851 -0.43352607 1.0880497 0.85726213 -1.1624907 -0.43379393 -2.2284791 1.7718499 0.70089316 0.04810541 -0.23096132 -1.2904818 -2.0094273 0.52626723 -0.2370312 -0.66495365 2.4620695 -0.68456465 -1.2765145 0.2622372 0.17581001 -1.7293383 -1.1417974 1.2822808 1.6765996 -1.0281842 0.7218109 1.4847198 1.4988328 -0.47031084 1.9875154 -1.544425 3.4306948 -0.12625127 1.5719544 -1.3816371 0.865723 -2.669354 -0.2927073 -1.2182431 -0.48025766 0.59948564 -1.4178674 -1.4703808 -0.7185616 0.9593896 0.757635 0.8555465 1.1113054 -1.119536 -3.3676136 2.0929768 0.29445794 1.7866461 1.8532366 2.097899 1.7358654 -0.0016087 0.42483386 -1.4650931
提 2.0798123 -1.9988536 2.1882727 0.31570515 3.9385521 0.7126532 1.6401912 2.391248 3.3632915 -1.560315 0.46713474 -1.5921103 -1.7067248 0.9900279 1.9675016 4.180704 0.37113485 -0.0034906748 -0.5779169 1.1311158 2.931854 0.6942132 1.6902773 -2.7918832 -0.1544876 -2.9537575 1.2736975 -1.2881168 -2.4154646 -1.6601712 1.3272794 0.6499826 0.49509627 -1.2937121 0.35590085 -1.785771 0.22120813 0.38572013 1.9561867 -1.3451308 1.1721703 -1.5871251 1.4236808 -1.4143268 -0.077498436 -0.6169245 1.1526105 -2.5407739 -0.38461763 -1.2381996 -1.1306814 -4.0638843 -0.92910546 2.0412514 -0.5136051 1.6163019 1.378795 -0.34622836 -1.221533 1.1061816 -0.8386812 -3.264521 -1.2336771 -2.3830576 -2.6727176 1.7924654 1.9134829 0.21704541 0.17204414 0.45781162 -1.220085 1.3600605 0.9923265 1.6154126 -3.1797788 -3.237497 0.84957874 -3.5065668 1.6262413 -0.05458597 1.3088274 2.2086508 0.763873 1.1825292 1.005822 3.1840525 2.566319 -1.8243861 0.9760318 -0.104305305 -0.10638108 -0.14317845 -1.932606 0.9968023 -1.9030188 -1.4773043 0.5353611 2.7567055 4.2306995 0.34383157
通 0.15708543 -1.655316 2.1991978 1.8121129 -0.42580488 2.367972 -1.1230841 2.0447402 -0.14674023 0.7768794 -0.27283743 1.7808932 0.68502253 -1.552619 0.52297956 1.1347436 -1.3561016 -0.9803038 0.28391528 -2.1418056 0.07767948 1.4782709 3.8428273 2.1834867 0.07894064 -1.2956117 -0.18284471 -1.635771 1.5592211 0.42271718 1.07325 1.2285626 0.9470531 1.7987736 2.2543976 0.07653736 -1.4007475 1.4771793 2.2475574 -0.06519621 -0.49495858 2.8904388 -1.3633217 0.22049907 0.1025867 -0.33808097 1.637814 1.4349412 -2.0253017 1.3245289 -1.5725689 -0.13716932 -1.142543 3.2450013 -0.8827974 0.2539319 0.3980827 2.1037612 2.3698413 1.7137207 -0.019615661 -2.579524 0.15238741 -0.4401558 -1.438302 -0.18556537 0.5796087 1.4303938 -0.03213071 -0.8961305 1.135228 -1.9650232 1.0409852 -1.0588125 -0.39812872 -1.471193 -1.9059243 2.576569 -0.3191145 -1.0909191 -3.1041894 -1.336767 0.1806548 -5.382974 -1.0177186 -1.2667292 -0.736074 1.8016312 -2.308496 -2.7853515 -0.47230867 -0.18503794 -0.504076 -1.8830683 -1.4101018 0.6953489 -0.38385472 -0.011042914 -1.9392371 4.191737
要 -1.666342 0.013489913 0.452075 1.339551 -0.45603278 0.71331656 0.6961007 -1.1730068 2.1090472 -0.8523888 3.0710118 -2.2866786 -0.04473786 0.9415219 0.08228625 0.13678892 -2.2036874 -0.034412872 -2.6702998 -0.76438916 0.89175355 -1.2219 -0.62912494 -1.1358292 0.20448616 -1.821593 -2.1874688 -3.173596 -0.75207955 0.9779868 -1.7868267 1.1625057 0.6679771 -0.44765633 0.51794183 1.1351725 -0.5762542 -0.47301275 -0.44149122 -0.06193297 0.74918 0.49296752 -0.71388 2.1716313 1.3774439 2.6001828 0.5884124 1.7261548 1.6454097 1.7778387 1.621974 -1.8794258 -0.646294 -0.96672195 0.8382762 1.3169321 0.6464309 -2.7096608 -0.9469799 -0.19297141 0.2894709 -1.15674 2.4672675 0.8021129 -2.2899797 2.848088 0.9411432 0.27247605 -1.1595131 2.0311213 0.53442156 1.6104598 -0.18904912 0.40743607 0.717947 -0.08468865 -0.07321798 1.4888855 0.8320085 -2.4544783 2.9326158 -0.7783245 0.93899673 -0.89505213 0.97947913 -1.6726974 0.08576583 0.07435853 2.1112633 1.1061096 -0.6555226 -1.5080488 1.0571394 0.5771177 -1.0549341 4.5511518 0.8016689 0.17099546 3.4227433 1.5053962
卡 1.1669326 -1.1661876 2.2316203 0.7564125 2.7226248 0.13524367 -0.49442977 0.8155177 0.70526665 -2.2072797 1.2666374 0.10401128 -0.6513245 -2.1250887 1.3857327 -0.60839105 -1.5058218 0.6472721 2.9763732 0.15298562 -3.0546079 -2.1363204 -1.0470779 0.4249414 2.4320364 0.5373397 0.0059957923 -1.1943945 0.0726219 -0.6668206 -2.310326 2.5659735 -0.5172873 -1.9098864 -1.3966981 0.062307835 0.83538365 -2.1763878 -0.9704878 0.5855106 2.3217664 -0.89032525 2.6237943 1.8432579 0.9082993 -1.452036 -3.1151993 -0.3958072 -2.0080502 1.4722519 2.876331 0.18980892 0.340989 -3.8524182 -2.5711434 -0.32145947 0.5368642 2.2198951 -1.8676789 1.5215995 -3.992761 -1.3838642 0.9632637 3.7892067 -1.4234132 0.7865808 -1.2133834 -0.9192985 3.7855716 0.48512033 -0.21816659 1.7061424 -3.5201378 -1.5627329 1.9149747 1.2551175 -0.12771288 1.3972714 -0.3640212 -1.4778354 0.010528519 -1.1059462 -0.99389464 -1.6612136 0.9519441 0.8921135 -2.5772848 -0.2579547 0.3087209 -0.4345798 2.1594675 0.035194855 -2.4103644 -2.4023733 -1.3691267 -3.2976465 -1.5549643 2.5503602 0.51349974 -1.2271469
信 -0.77059203 -0.27765998 -0.15148379 -0.34165537 0.1693633 0.26877573 -0.88523006 -0.71378714 1.1235033 1.6454594 0.6615037 -0.017282853 -0.2595637 -0.05557307 3.4976673 -1.0152658 -1.2823548 -0.9662549 -1.000147 -0.7830109 1.8517767 0.4749687 0.05783162 0.48987156 1.3122735 0.3383889 2.268604 -1.25252 -0.6773053 -0.11936465 0.06437548 -3.758326 -1.5757644 1.8121063 -1.4423556 2.120267 -4.5688987 -1.1497794 1.74213 1.2490926 1.9874053 0.781469 1.3677019 -0.83525956 1.1788181 -1.0022894 1.5759287 -2.1437185 -0.2951296 0.45977384 -0.9723949 1.096935 0.9086444 0.4051533 -1.2903876 -4.9138384 2.4659553 -3.006737 -0.2553845 1.6813782 4.1659803 -1.3413764 0.23115602 1.8644074 -0.3921998 -1.8656844 0.037491698 2.2397993 -1.9214777 -4.9693174 2.5155926 2.888716 1.3580221 -1.4577904 2.0082223 -1.6345191 -3.4583182 -1.2320852 0.2939294 0.028650943 0.24792889 -0.8133513 -0.6206264 1.1157568 0.75457096 -2.9019444 -2.9693828 -0.8739095 0.2868077 -0.9528575 0.74601334 -1.7621173 -1.2298906 2.5026698 -0.32501933 -2.8422487 -0.5236524 2.4753747 -0.4782024 0.5836086
开 2.1376889 -0.85907394 -1.6679727 -1.9700036 -0.9958889 -1.4440358 0.59403664 -1.1461129 -3.1646886 3.9664376 1.1539464 0.7843473 0.08352942 1.402833 -1.1124135 2.0312622 0.8765933 0.7147727 -0.33030832 1.8384796 -0.12643135 -1.2808678 -2.9022293 -0.34849256 1.0100447 0.25743148 0.40333351 2.1265311 -2.0251372 0.2267037 -0.11032397 -0.2610612 -1.4273645 -0.13346355 -0.43278325 1.5078301 1.6525317 2.3859541 -0.5326189 1.2485849 2.9162478 -1.434175 -1.0704306 -2.1714637 -0.11359341 1.9059907 0.2198681 -0.3662978 -1.8032707 1.1457615 3.2747142 -0.6393406 -0.07034242 -0.62759084 1.5831901 -0.9156653 -0.37018058 -1.3752277 0.007348971 -1.3760391 -0.567483 0.9605752 -1.1181625 -2.367783 0.67396843 -0.24590878 -0.5028362 -0.18956423 1.3460157 -1.6464381 1.4641346 2.3740108 0.75693446 -0.9481068 2.2036982 0.17698438 2.4511158 -0.92308223 2.5163074 -0.4471533 0.53520757 1.6650882 -2.859203 4.859748 -0.42146143 -0.6191886 -0.45310128 -0.9978937 -0.80002916 1.2273358 0.036810067 -0.17238203 1.4356848 0.0031084863 -0.08713995 1.5533274 4.53526 -0.37336883 1.1895636 2.1958513
号 -4.7359257 -1.1682066 -2.065045 -0.4523042 -0.32616156 -1.8807828 -0.9713519 -0.809805 -1.0700822 0.73653895 -0.37635761 1.1282259 1.1120608 3.7729206 -0.6329805 -1.819936 -2.5597038 0.17671049 0.85092485 2.7558079 -1.6058033 -0.73117477 -1.6667439 0.49241725 -1.4483612 -2.2005517 0.93219 -1.7196201 -1.6371231 -3.3583484 -2.3729274 -2.3079917 -0.68808496 0.30134392 1.4298797 -2.146883 2.6784673 -1.6985883 -0.7514686 -2.8006775 -3.3180833 -0.4899715 0.23063645 3.3652458 -0.33820084 -0.042471156 -0.076850764 -0.82101387 1.4237832 -1.8304491 -0.014385599 -1.4006042 1.0983741 -0.06741404 -0.027285686 -1.4081156 -1.5407972 0.26049 -1.8008273 2.3556519 0.6326576 0.1617045 0.69925964 2.401084 -0.33500424 0.18506686 1.3840976 -2.7368636 0.34096354 2.3156362 -0.1647234 -2.698153 -0.9140453 -0.64047825 -0.42197224 -0.51863676 0.07147889 -3.2804017 -1.739482 0.26102138 -1.495635 -2.3773243 0.40756416 -1.1217463 0.8270344 -0.2771365 1.1034805 -2.5298893 -0.62175 -0.6666826 0.96461064 -0.3228809 1.0424072 2.438728 -1.368356 0.23347677 -0.9010804 2.1222882 1.7301584 -2.2588544
如 -2.1351128 0.24593687 -0.5991244 3.2064312 -0.21223919 -0.27712965 2.0002549 -1.0256714 0.5876746 -0.88476443 -0.5327049 -2.3993714 -0.81493384 3.0459228 -0.5519658 2.2899282 -1.4655591 -0.24538493 1.2766572 -0.10316054 0.9443463 -0.7246625 2.65696 -2.7999513 -0.53172797 -1.100467 0.713594 -0.07045316 2.620085 -0.70010865 1.0026373 -2.3113244 -2.4072044 -0.5552491 0.6159751 -2.188266 -3.87919 -1.9395293 -1.1933413 -0.17570859 -2.1666682 0.25213638 2.911087 1.8656087 1.0151092 -1.614358 -1.4579564 -0.92166334 4.5217795 0.9209678 0.11889662 -3.0598855 -1.8522768 2.0420766 -0.07782212 2.383209 2.1275315 3.1336427 -2.931962 -2.405167 0.7713137 1.068551 1.5416383 1.0122123 -1.1347347 -2.652312 -2.5919027 -0.5559815 -2.5852287 0.98823166 2.1766002 1.2368354 2.0479233 1.5774525 0.46763098 1.7768445 0.8968078 0.9707661 -0.6792412 0.2952237 0.95897865 -0.15684173 2.8928742 1.837505 0.5722639 -0.19321479 -3.2403243 1.9123081 -0.2180307 3.2908869 2.9498997 2.684746 -1.8223046 -0.36579242 -2.0913234 0.7515651 0.9865593 0.97355646 -0.34461525 -0.9361767
好 -2.5771847 -0.93414253 -0.91439515 0.24971943 -0.2345908 0.86899716 0.6363617 -0.83832353 0.9056675 0.09893845 -0.65085953 0.66584885 -1.9005526 1.2846885 0.88844943 1.1328803 -0.015473523 0.110300906 1.493537 -1.65586 -0.3630467 1.0294566 -0.06589166 -2.1270847 1.499321 -0.074425645 -0.36065146 1.2356955 -0.54026693 0.26852453 -1.4218749 1.0069758 -1.3252131 -0.054981552 -0.119793974 -0.0042192554 -1.0298642 -2.843706 2.2168386 -0.555516 1.0540845 -1.275103 0.11948431 0.18487284 -1.2883557 -0.48306796 1.6373146 0.269624 0.72175086 -0.8473746 0.85184413 1.3581434 -3.2563858 -0.9595214 0.5586708 4.3685884 -0.22550195 -0.9265018 -0.5310418 1.4312862 0.37037203 1.4245601 -1.6216259 1.1775191 0.58635 -1.5715027 2.248026 0.68399894 0.35914373 -0.06404629 0.6449074 3.198164 -0.75819886 -0.9805083 -2.7291193 2.282589 -0.636813 -0.09043771 0.21433848 2.1480174 -2.092839 -0.14037995 -2.2924922 -1.0446012 -0.5261515 2.3357098 0.6980179 1.0836223 -0.46992597 0.71499723 0.7936292 1.2992576 -1.7439629 -0.14969689 -2.8689516 3.1683629 0.1080415 -0.79401726 -0.09586676 -0.9540267
何 0.21866935 0.16339868 -0.07240356 -1.662448 0.4225119 4.3573 0.44679114 3.64376 -1.8821247 -1.1637468 1.3128538 1.912679 -0.638935 4.117816 1.6024995 -0.69689786 -0.33211574 -0.76227194 -0.88518995 1.0378807 -1.4601601 -2.8657236 -0.24212457 -0.18950246 0.79846925 1.2021397 -3.4759417 1.3400799 0.056803115 2.510986 -0.08570782 3.609235 -0.16999806 1.179354 -2.386972 1.1325839 -0.6743762 -0.62534773 1.8156042 1.6030627 1.4544333 -2.7605548 -1.3673649 1.8478968 -0.9482139 -0.740953 1.2429489 0.82028955 -1.2830012 0.055082932 -2.746021 2.261037 -2.153532 -1.231541 1.0932955 -2.5791645 -0.04423871 0.09622149 -0.745024 -0.2379551 -0.5764224 -1.8917712 1.6414142 0.19150835 -0.6690201 0.9867575 0.40210354 -2.949958 -1.9178483 -1.2354127 0.8763289 -2.6950228 0.3322541 3.5640092 0.15160973 2.0677474 0.5675957 -1.8183377 0.9848075 2.421315 -2.7593117 -0.72629607 -0.25063834 -1.1818467 1.3556689 -0.8502018 2.617562 -0.58981395 1.6455772 -2.8001885 -1.6599112 -0.8000709 -2.024954 1.1650326 2.4406667 -1.9135581 -1.1500995 4.4457026 1.178147 0.40971693
个 0.5083167 1.6517075 0.015554295 -1.8758878 -0.15281142 -1.2496325 2.9259648 -1.1859424 -1.1230903 -0.092358634 -2.1067128 0.004400544 -1.5034146 -0.5065988 -0.3784706 0.3155544 -2.5312345 0.38961774 -3.6502552 0.85507077 -0.98604774 -2.017312 -1.40618 1.1855357 -4.0146737 -1.8484174 -0.09728313 -0.3506976 -0.4586629 -1.1865537 -0.91981304 -3.8796434 1.3952945 -1.2073908 -2.094324 -2.619054 -2.5457497 -0.80317825 -1.9283236 -1.2202789 1.2286888 0.019777803 -3.233166 -2.1144617 -0.21971639 -0.60063404 -0.4164425 -0.34915054 0.9085797 -1.654837 -0.579754 -3.073962 -1.3416533 1.0274534 1.1437783 1.6070099 0.10273214 -0.4475027 -1.4197233 3.4062562 2.6619873 0.38195512 2.78131 2.868328 1.0826824 1.0160165 1.4638015 0.5553568 -1.8575515 1.7915448 -1.1926885 -0.6460092 0.79290223 1.2885026 -0.8176184 1.1782075 1.6589886 1.6396093 1.4948126 1.2231847 -2.5445628 -1.6472203 0.4180604 -0.8877778 -0.09235015 0.9687065 -1.015065 -0.2117601 -0.912062 -2.0151837 0.5206846 2.8033125 -2.7978292 -1.6273766 -0.95139146 1.4646934 -0.44269666 -0.13560545 3.2009754 -1.7207285
在 0.32387882 -2.3446631 0.5892097 -1.3017098 1.4448992 -1.9617623 0.50237745 1.9166927 -2.179676 1.0056537 -0.12725256 -0.24258366 0.24888751 0.48497006 1.2322445 1.046493 -0.073276736 0.8714176 0.9458988 2.383751 1.8224808 1.8032426 -1.0544299 0.6537201 -1.1398911 -1.3446085 0.6026245 -2.1369803 -0.38601246 -0.15781403 -0.75682193 0.9189821 1.4505262 -2.2416239 -0.56807184 -1.2203892 -0.70837057 -0.6114203 0.79693776 0.40424588 0.6496166 0.90218467 -0.31629613 1.6021945 -0.49532184 1.4021026 -0.38214493 -2.136649 2.014947 -2.4501543 1.0915881 2.2622035 -0.3287197 -1.730975 -1.8996756 -0.62392634 1.7990686 2.9497554 -1.8120999 0.96763027 -0.02355246 -2.446294 -1.3788508 -0.00815806 -1.5041991 1.2503904 2.2264578 2.240102 2.217888 -0.39248943 1.4207677 0.7132995 -2.511821 -1.202435 -0.50220263 0.9995086 2.6637 -3.7084348 0.48432088 -0.48288095 -0.3182409 0.57630825 2.162775 0.8574634 -1.2698905 0.9476333 1.5755032 2.2195969 0.8539053 0.63079095 -0.49686202 -0.13122305 -1.1749444 -1.3422577 -2.6213655 -0.41035417 -1.1425191 1.1484659 0.77565163 0.86586225
1 -3.1345267 -3.847125 -3.1555963 -0.6037218 1.6421245 -1.0508575 0.39079732 1.7619736 0.45747322 -2.3289866 -2.4153202 -1.725889 1.7234474 1.007323 -2.4761746 0.84351987 -0.106394775 0.7775694 0.9584774 1.6087052 -0.5410622 -0.9917191 2.067822 2.1883957 -1.6199523 -1.0929933 -0.33872738 0.6502013 -1.3082548 -0.51934135 1.3267031 -1.244885 0.5137976 -0.17660488 -2.2640972 -0.013566059 -0.7427793 -2.3403203 1.2635678 -0.12675118 1.3222543 -2.5293696 -0.71930814 -0.20784698 0.6247812 0.31809458 0.35806286 -0.2135625 0.0999457 1.8351775 -2.481625 0.58472896 0.19992763 -1.110275 1.3275882 1.1461543 0.6473387 2.1650202 -1.1552455 -1.2390354 0.26718646 0.4464064 -0.59237206 -0.6800872 0.28352797 1.0731149 -1.9598212 -0.45100388 -2.687764 1.100371 0.84679586 -0.80240875 1.5250199 -0.5280701 0.8981604 1.023182 -0.3548144 -0.0125608165 -1.0109515 0.108618386 2.0114865 -0.84422994 3.0612082 2.7144938 -0.67322445 1.0476791 -0.3733137 -1.0812204 -1.7668937 0.14682594 0.5992751 3.1771927 -0.13065872 -1.4734902 1.8344083 -1.3140848 -2.0352948 -1.9725004 0.66541684 -1.7553563
期 0.28422686 -1.2387105 -2.3739545 -0.73824614 0.862277 2.7376556 1.6614165 -3.714826 1.6172706 -1.6481133 -0.48738748 -1.179037 -1.3063496 0.3997273 -0.65911734 2.9953861 2.221652 2.333166 0.37145573 0.1507748 -1.5735302 -0.17143907 -0.68053955 -0.26216906 -1.6299593 1.1000746 2.3621893 -2.943931 1.6298962 -1.9273046 -3.2687542 -0.38298944 -1.5098333 -1.4804835 -2.3782258 -1.1479547 -1.9258509 -0.6005997 -0.40839466 -3.1616108 -1.0046664 -0.2664876 -1.2607834 -1.1920238 -0.18012145 -0.11910385 2.7179391 -0.22448424 0.87124574 1.4709554 -0.54039496 2.583896 0.88987505 0.10190156 -0.33624247 1.5313333 -1.4631474 2.3780582 0.15528737 -2.3616147 0.08293829 0.33183983 0.29691803 1.3862143 0.3158909 0.37189317 0.4518989 -1.0614947 -2.0736651 2.2130995 -0.89786184 -0.88235354 2.2227473 1.1514934 -1.9076643 -0.8426638 -1.4236182 1.8768623 1.5760883 1.5802953 -0.573939 0.35610524 4.6696777 0.15063362 -0.10515558 1.0410787 -0.11625122 -0.42791322 2.6916788 -0.06363656 0.890026 -2.1814976 -2.2022882 -2.2330275 1.5371618 0.8167981 -2.3720684 2.4302607 0.5561188 -2.333125
度 -1.4193803 -0.36652952 -0.013202547 -0.23101608 1.8747574 1.6627542 0.83106107 0.5960089 -0.7121677 -0.37676778 -0.55158883 2.1136112 -0.87082666 -1.7018274 2.0960412 1.6115716 -2.3676987 -0.8318271 -0.14367133 -2.4541018 -1.5649387 1.689386 1.4134748 0.046340283 -0.806691 -3.5178838 2.0491714 2.1734009 4.189272 -3.10975 -0.28397235 1.3466058 -0.41492695 2.4815319 -0.1525044 1.5098692 2.627374 1.1959362 1.6076041 2.2346551 0.6444735 -1.2628489 -1.1116112 -2.775955 -0.22604138 -0.3969879 0.809176 2.6294513 0.72338 0.17868915 -1.0126586 -0.58485466 -0.9019791 -2.4723542 -0.0432019 -1.4122155 1.2316464 0.87405133 -1.9176688 -1.4835553 -2.6019883 2.921224 1.4858819 1.4220015 -0.5589843 3.1088371 -2.1553614 -0.2855904 -2.7076986 -0.4923591 -2.2552803 2.327592 0.2786197 1.3524565 -1.328548 -1.3189225 2.251102 -2.9457774 0.38530505 1.4199722 -1.4053559 4.337486 1.7341964 2.9284155 -3.6032012 -1.3283341 0.83000934 1.6160866 -0.7613664 -3.216846 2.5847518 -0.24923542 0.4198792 1.1633463 -0.77924305 0.14239532 0.943959 0.6947694 -0.1266745 0.09252559
用 -0.32899237 1.7918831 0.90367377 -2.1011596 -0.3025242 -1.114283 -1.894407 -2.3820648 -3.1107044 0.3372915 -2.1349769 -0.70667136 0.5984503 0.51495904 -1.860342 2.214553 0.10901681 1.3910251 -1.958822 1.0756861 0.64884824 0.8050863 -0.48184422 -0.26998428 1.2750328 0.6630221 -0.20942956 -0.2974112 -0.38573775 0.5669443 0.33181074 -0.8460046 2.9278853 1.6236254 0.6857545 -0.2597108 1.8463341 2.1618962 0.11496427 0.79100806 -1.3667761 1.2154852 -0.21239969 -1.2724568 1.1001459 -2.4787543 -0.56476474 -0.8483383 -0.3549554 1.125494 -0.8909345 -0.9911307 -3.0721345 0.40578654 -0.7925933 1.3709896 0.73479867 -1.6972784 -1.8082491 -1.3151565 -2.8640637 -1.3380064 -0.884051 -1.0500503 2.0259387 -0.91225123 -0.40246764 -0.89300907 -0.52208936 0.66772085 1.9748471 0.08851635 0.0887791 0.038079295 -0.9571083 0.24727412 0.29898 -0.36666873 1.0413797 -1.8708664 -0.5715638 0.5195831 -3.402674 0.5163869 -0.8202229 1.2492542 3.1312888 -0.3208753 -3.9627461 -0.5798041 -0.20138657 0.7486649 -0.09131282 -1.3743111 -1.5692759 0.3435405 0.2731308 2.1597073 1.4416938 0.56945467
过 1.4865355 0.82821524 1.314302 -1.6424481 -0.77490586 -1.8250301 -0.93409806 -1.1325569 -1.814207 3.3862555 1.5998684 -1.0279456 0.026442783 3.1556234 0.5237955 1.1002177 4.673944 -1.9791498 -0.49206176 0.44949704 -0.6789022 -1.2879848 -1.1017141 -0.85231096 -1.039427 -0.89733887 0.48857948 0.5695831 -0.24268702 0.21219072 1.5561951 0.21626708 -1.2147007 0.005467844 -0.041683033 -3.5712895 2.659042 1.3915949 1.6553046 2.3469856 2.5239174 -2.96206 -0.31119367 2.729429 -0.23459381 0.8947676 0.39485452 0.15507351 2.8180292 3.531973 0.7506684 -0.07850167 1.9558604 -0.65421385 1.783173 -0.40319654 -2.4716594 -1.8264557 -0.906145 2.0613651 0.34606174 0.05057414 0.2731477 0.034538783 1.3372748 -3.604314 0.16836795 1.3014792 -2.4858007 0.1793672 -1.064848 2.6359186 -0.94320124 0.36518738 -0.07986709 0.7584692 4.0577164 -0.42596012 -0.33785075 0.18503608 -1.0966573 1.9285017 -0.18851444 1.411693 1.02872 2.3855577 -1.3494155 -1.1655426 -1.3153617 0.8938934 0.17859147 -3.5220046 1.9486455 2.4629147 0.56244963 -0.51856077 1.3039129 -1.5715995 0.10242781 1.2706474
前 -0.65372354 1.357733 -1.1756521 0.90212256 -2.573337 -2.4371943 -0.43942636 -0.123637356 -2.431185 -0.09939996 -2.6481564 -0.32270423 -0.43986377 -2.0670347 -3.215521 -0.7034356 0.99891347 2.3426747 -2.3162718 -0.6053346 -0.8903429 1.4447111 -0.072707415 1.596869 -0.7011659 -0.9052249 1.0850152 -2.3722126 3.4900978 0.7975204 -2.2477536 -0.34307083 -0.8944361 -0.45105436 1.9480994 0.32655156 -1.8424016 -0.2738534 -0.22264302 -0.72587043 1.6909944 -3.6337245 -1.5759424 -4.472182 1.2460818 2.5923467 1.2223743 -0.13890079 2.8071485 -2.0907474 1.0800968 2.527832 -0.7069087 -4.330341 1.5527273 1.399755 1.0999078 0.046640467 1.6123779 -1.6849307 -1.7045913 1.4909782 -1.4361315 3.1586764 -0.40906483 -1.7025075 -1.8373957 -0.30546984 0.75564265 -2.1499052 1.8173612 -0.63762784 0.41111553 4.2649026 0.45636973 2.4492557 -2.6022847 -1.6217986 0.7968096 0.96789646 0.97211105 1.0878378 0.48088008 -1.0800011 0.97913885 -2.7985125 -0.23724355 1.4900154 -0.89868945 0.53895676 1.1356939 2.998525 0.9815886 0.32633156 0.25249672 0.8508744 -1.2688885 1.2508878 0.5963528 -3.007669
利 -2.1145492 0.8071103 -1.8848524 -1.4907062 0.96589833 0.2023786 1.8063228 1.7589384 3.159752 -3.0378807 1.5934348 -1.5854851 1.1056554 -0.1389132 -1.1502373 -1.4852216 1.8426864 0.8101878 -2.201048 0.56956583 0.87888515 -1.9543363 -0.06254616 -1.8842695 -2.0078552 -0.8520287 2.7860496 -2.5671058 -1.298147 -0.776942 -0.2060912 -3.6562166 -1.3291988 1.3590794 -1.4428388 0.59965754 -2.1761522 1.8650156 2.8935251 -1.2106352 -2.1371098 -0.7068362 -0.28568205 -2.327331 -0.26276457 -0.025804846 0.29228094 -2.1517513 2.574295 -0.13733992 -3.3486335 2.3385277 -0.5014766 -1.2665906 0.8478114 -1.2730353 1.3915807 0.4936042 2.420312 1.2977264 1.4650258 2.732354 1.106982 -1.0722843 -1.2055796 -3.3016162 0.6834363 0.39788598 -4.6588845 -0.43127722 1.0471244 1.9162014 2.3297274 -1.9417001 2.1152112 -1.961001 -0.36897582 1.7960624 5.1752715 -0.9107505 2.82219 1.4735261 1.2374519 1.4908947 1.1623324 -1.569998 -2.470756 -2.776593 -0.8906363 -1.7404616 0.6510461 -0.9800152 0.8918824 -0.78495127 1.1501473 0.5135523 -1.564725 1.0732918 2.098953 -3.1258793
后 2.1250327 -0.098114125 2.1803935 -1.5559062 -0.12278209 -0.74495757 -0.35672373 -1.1727269 -0.8377964 -1.3692006 -0.37687352 -0.63814324 0.6549549 1.5893114 0.42172095 0.37959397 0.5837325 -1.237082 -0.6835459 -1.7708406 2.4446523 0.31587797 1.8167413 0.57298374 -3.3580916 -1.4861819 -1.7945888 -1.7592686 0.6084908 -0.4872932 -1.2217042 0.58399016 0.42133096 1.5006605 0.44084495 -2.220244 -0.82588154 0.4352286 1.1680773 -1.5420417 0.51513994 -4.7856655 -1.749527 -0.9084329 -1.9653205 -0.10946356 -0.38672492 -0.61249167 4.8562717 -0.34302372 -0.22356209 -0.91656446 0.15433778 -0.87932396 2.0867372 1.0086721 -1.1472987 -0.6043403 0.21540107 -0.48232955 -3.580995 0.10226089 -1.4103907 0.5329272 -0.9910582 -0.41371873 -2.7063453 -0.5296155 1.9773281 -0.59189326 1.0020006 -1.4426043 -0.62283355 2.4522884 -1.6380031 -0.15762652 -2.70037 -1.7763299 0.20607342 0.12556067 2.5209718 1.7633069 -1.0959225 -1.9602703 -1.7396657 -2.5182543 -0.20046695 -0.591898 0.5512407 1.6090862 -1.7695171 0.5390423 0.85805696 2.040688 0.20926255 0.9332266 -2.1643357 -1.2215024 0.7618621 -1.4241874
少 0.19079424 0.6525948 1.4773468 -0.9197214 -0.20113736 -1.7866452 0.877495 2.6887712 1.2650534 -4.7757545 1.5778455 -2.725741 -1.4774045 -0.9935538 -4.044496 -1.2768726 1.0656719 2.0882323 1.2958817 -1.1202428 -1.1615866 1.5144485 0.85583085 -2.9711783 -1.4463408 -1.060127 1.1972119 -3.0369136 -3.8318205 2.1733947 1.4508445 0.5799708 -0.99614036 -1.3260133 -1.4251937 -3.1119888 -0.96137613 0.6101018 -1.5103604 2.7921357 -0.5413885 1.7113941 -0.92186236 -1.362848 -0.49727234 -1.0257131 -1.9634252 -1.7138543 1.6896986 1.9497463 -1.5484432 -1.0483896 -0.067581624 0.085184164 5.296442 -1.1894705 0.5346325 0.4175619 -2.2263181 1.2989918 1.7903435 3.3129387 0.18850805 1.666399 2.5955768 -0.8182588 2.7093718 0.5575635 -1.5546038 -0.16676831 -2.9412355 1.5914066 1.4879605 1.5463136 -0.34525964 -0.9604865 -2.048078 1.169182 0.5187736 2.068753 7.4657545 -1.440829 0.4618669 0.19776654 -0.036804717 -2.2127008 1.255235 -2.979411 -2.5024407 -0.29613253 -2.960303 -1.9868551 -1.0547079 -0.04553333 3.8639102 1.1593055 -2.5644073 0.40007073 1.1679257 -1.0186085
证 1.0424488 -0.74404424 1.1951125 -0.19101056 -0.081847236 1.1990924 0.9338049 1.3876764 0.70514643 2.106688 -0.3655866 -1.4747128 -1.2133212 1.8013119 0.16805193 -4.756956 -0.20304476 0.0522089 2.6444294 -2.655745 3.0183482 -1.5634907 -1.535836 0.1309471 -0.7835228 1.4010373 3.2817287 2.0827646 1.8587958 -3.8203259 0.9631403 3.6048017 -0.6011497 0.17055231 1.4813654 0.8459802 -3.998533 -1.0444672 1.6686271 -3.2484114 -0.5114294 -4.858299 0.56655633 -0.10964519 2.7560906 1.2705868 -2.0848374 -0.96319604 -2.4718425 -2.4599133 1.4648222 -0.32321677 0.7513408 -1.2275933 -4.496607 -3.2819002 -0.24125719 -2.9064355 -1.1634631 1.2316544 2.9703665 -2.4016745 -1.5422785 -0.02093328 -0.4469435 0.039503627 0.069352575 -2.0330467 0.80124384 2.778849 -1.3362172 -2.3956795 -0.56772953 1.350216 1.6742202 0.80053645 -1.8696377 -0.56147105 -0.21726112 -1.051298 2.3309996 0.98722655 -3.4661686 -2.4364974 0.08463451 -4.3562913 -1.4567486 -1.5815216 -1.0350716 3.915181 2.0876496 -1.4804162 -2.5479684 -2.067284 1.9523817 0.7877403 0.70815414 0.5535866 0.84016186 3.8622954
现 -0.6300554 0.82473075 -1.642773 4.3356514 -0.8394251 1.0751909 -1.6453618 -2.496872 1.2293252 1.677184 -2.0473847 -1.0098842 -0.9761603 -2.4732852 -0.31886786 1.7890252 1.3875595 -1.1380025 -2.0924146 0.17045817 -0.52262 0.725206 -0.2598099 2.7292585 -0.5001937 0.7851576 -1.0802765 0.63302433 2.7410533 1.6119565 -1.0139332 1.7539015 -1.7746311 3.0274901 1.7567302 0.82042086 2.742956 1.7233825 -0.72267914 -1.2805648 1.7406119 -2.8300693 0.14150102 0.11692869 -0.8773141 -2.4976494 -0.50745493 1.1980308 -1.0711467 -1.0821263 0.3864678 0.22914787 -1.5613797 -0.13565965 1.1691171 0.80918133 -0.09215385 -1.2040616 -0.9401727 1.6267291 -0.6962413 2.6553977 -3.0280447 2.473723 0.8665349 0.07121405 -1.5628983 -1.6962758 -0.7537367 3.3882477 2.4623177 0.028362786 1.5789135 1.4251702 0.97439986 0.07692203 -4.6563096 1.1558686 -3.5446007 -0.7640586 -0.44298393 -0.71522176 -2.7336261 -0.92888075 -0.07864267 0.114596926 -3.2565982 -0.28720242 1.2138715 -0.67488915 0.85645133 1.0411683 -2.1536243 2.425641 3.5446715 -0.60521954 -0.5495874 0.67836815 1.5966074 -3.592643
审 2.4278603 -0.9167603 0.28832945 -1.6722881 -1.0779786 -0.7113111 -0.29673505 3.6479523 0.24292605 3.5293753 5.0809793 -0.4336003 -0.45697248 1.6700776 0.054635856 1.6414866 -2.1103313 -2.24214 -0.4208931 -1.656844 -0.29289994 -0.31364104 0.23340398 2.7269175 -1.2676555 2.6335351 0.32729194 -0.9300958 1.9390833 -0.89137745 -0.6301616 1.9714577 2.8009996 1.5355893 -0.5309527 -1.1395919 0.7880949 -0.25586927 -0.113435864 3.5903742 4.2924924 3.9368331 -2.73034 2.010917 -1.1262001 2.5268593 0.3328597 0.35095888 0.44139022 -0.23916213 0.35684243 -2.654365 0.59724003 0.030259436 -0.21562569 -0.99074554 -2.111658 0.5201766 3.3981473 1.3546711 -1.1093675 0.19191247 1.0884979 0.42783496 -0.08862223 -4.7310266 0.19004123 3.1237426 0.7012784 1.6236179 0.90300375 0.9453973 -0.6644881 1.2007015 -1.4099851 1.8690685 -0.83232313 1.7981488 -2.5088925 -2.761986 0.17254779 -0.2267636 0.94418615 -2.5732276 0.17772967 0.18219149 -0.17667095 0.49235815 0.03914504 1.6457094 0.61812794 -1.7154177 0.80071765 1.1526026 1.7493218 -2.1203358 3.2184758 1.9564742 -0.15989809 1.8303236
申 -2.7212336 2.926403 -1.1005166 0.47986552 0.3652289 -0.49916965 0.4387301 0.88726324 -1.5772094 2.0856407 1.1536324 2.441085 -0.057628524 -1.818953 0.11020462 -0.8937396 1.912631 -0.29175395 0.16208327 -0.6131627 -0.7770135 1.5429599 1.1529566 -0.34279105 -3.9799106 -2.1126223 -0.536721 -0.0047471565 1.9097934 -3.0935493 3.0229363 0.85302114 0.26890987 -0.32433373 -3.539892 0.9653746 3.5434794 0.6955121 0.23816563 0.121696435 3.2589068 0.33765447 0.7240886 -1.1197586 -3.097252 1.6901952 2.1065872 -3.5513592 -2.2971387 1.1125864 0.7210299 1.1291206 -0.8841571 0.64848435 -2.1952312 2.8390434 -1.1054425 -1.5155132 2.455072 -0.16165751 -0.8072279 0.058545362 -4.640651 -3.0754087 -0.2175578 -0.95343053 0.9269484 0.28415146 0.52006257 -1.2622594 -0.34631103 1.0404911 4.2237988 1.5287124 -1.5505443 1.8657517 0.45835745 1.5446824 0.57897013 -1.7386059 -0.51014495 -0.64332116 0.34975114 -2.2689977 -2.1207654 -0.4851877 -0.3367579 2.1325707 1.1821157 0.80338436 0.9896506 0.09264568 1.1254339 3.4529672 -1.4918007 -1.5335032 -1.4319321 1.3821067 0.89518946 2.0497746
码 -0.09506505 2.0470212 0.872515 -1.9749144 2.1707363 1.3727689 -0.2683196 0.8234383 -0.6547981 -2.710676 -1.6534214 -3.4262452 3.779028 0.58198047 -0.8066149 -0.8448154 -2.3530192 0.66100544 1.1101466 -0.13992028 1.9415599 -1.0596557 2.4519856 2.0816336 -2.1337407 1.2476121 1.8645725 2.947754 2.432507 -5.6786966 1.0381656 2.5450768 -0.7822349 3.1179836 -1.4636604 -0.7371414 -3.0368583 0.60564536 0.50177014 0.34303945 4.3838634 1.7462867 1.152667 1.9462501 2.9967082 -0.02712353 2.1714728 -0.08649315 0.36098552 -1.9073545 0.5843757 2.7781944 0.49279663 -1.0089176 -1.5918362 -1.333019 -1.5279446 -0.1961946 -2.8454647 3.8755097 0.43466526 -2.9850163 -1.2099118 3.4708061 -0.33638647 -0.32319215 1.5111225 0.023253039 0.19141752 -0.24024656 -1.2648264 0.20572494 -2.8587325 0.29623583 4.16388 -2.3090775 1.9969833 3.1783483 -0.7231651 0.4405749 1.0436883 -3.6505759 -2.955015 -0.9045668 -2.8036013 1.5090129 -0.75841826 -1.7278812 2.346356 4.017835 -2.8893967 -2.0873356 1.8336135 -0.48188844 -0.34634995 -2.265172 0.7548924 2.0537329 -1.7630163 -0.76408863
清 -0.79502106 1.1080736 2.5241673 0.02459132 -0.348091 3.5016053 1.7155106 1.0152162 1.9892783 1.4621081 -2.7581375 -1.1645925 -2.2844229 0.998291 -2.366733 -0.25653607 4.25257 -1.8649024 -0.071431026 -0.93237096 -1.6512355 -2.7600915 1.9929574 -1.0201586 -0.95794636 -4.138605 -1.0940993 -1.7397561 1.5758902 -1.2773883 3.029155 1.2022103 0.567174 -3.7870157 -0.08640674 -2.0864794 0.7955744 2.896194 -0.51202863 -1.2659525 -1.1441174 0.61798555 2.2337644 -2.8909912 1.6267915 -0.0040533314 2.751495 1.1294749 0.62038594 -1.6929426 -0.8419404 0.9530578 -1.7010912 -1.4337677 1.5970068 2.1589766 2.2348413 -1.4793919 2.7018847 -0.43495104 -2.123307 -0.09636415 1.2698308 0.8131918 -2.870471 1.7495222 -2.5773242 0.6678377 1.0159239 1.1697172 2.1988726 0.46613213 1.4231912 1.0529114 0.31179133 -0.5533933 -0.7797234 0.48062482 3.8511064 1.031087 1.7124227 0.19641559 0.899758 1.463982 -1.1089712 0.011305728 -0.72424084 -0.8331384 1.078851 -0.22681303 -2.2993796 1.080888 -2.4055269 2.5245953 -3.2087603 1.6415147 2.1649375 2.5119388 -1.2468351 -1.6235415
手 1.3614308 -4.211177 3.098998 0.5248809 1.0758811 -2.6167853 -2.2588239 -1.3244145 -1.5723884 1.3744878 -0.20370612 -1.276566 0.32639146 1.3401363 -2.4271245 2.2869184 -2.5723345 -0.8298689 2.0938418 0.6742353 0.006442626 -0.1688177 0.38793486 -0.55619144 -0.8508238 -1.3417425 -1.2679824 2.0909202 1.3855336 -1.602641 -0.28296217 -1.6698853 -1.9572762 0.2109333 -1.67148 1.521785 -1.2685437 -0.6813041 -0.96374625 -2.195995 1.7818011 -0.5883804 -1.9834747 -1.504947 1.423464 -1.1230509 -1.2294489 -1.1877003 0.42641503 2.2058873 -2.5803587 0.51268774 -1.9573817 -2.6861625 -0.80599385 -3.5974977 2.28002 -1.1219599 -1.0251791 2.0238113 0.6118361 0.69616604 -3.548884 2.230078 1.3461072 2.631678 0.90488404 1.2567793 0.7498302 -0.8250129 -0.028979994 0.18022749 -3.5454614 -1.3981979 2.2081864 -3.136988 1.3686513 -0.09147764 0.5890509 -1.8163697 -2.9067338 -1.9224907 -3.217151 -3.1787708 1.1310264 -0.7100577 -1.4210272 -2.3775544 -0.6097084 3.7227826 1.9590783 0.48018387 -1.5478617 0.09256287 -1.4848409 0.3520906 0.27111435 3.3359947 -3.4614904 -1.4955621
会 0.8266245 -0.4851617 -1.0852079 0.13666385 1.844218 0.6496624 1.3736916 -1.4619191 -2.1548526 -0.76464957 3.3598533 0.6478773 -0.6186203 -0.20967609 -0.46849597 0.6317703 -0.8557415 -3.4749923 -1.0160292 -1.4580864 2.7161543 1.4143286 0.5124005 -2.305952 0.59874266 0.32550377 -1.1980358 -1.747808 0.036604825 -0.18705675 -0.4946867 0.46026224 1.1941946 1.0521474 -1.1665778 0.16491222 0.044978052 0.96668243 1.202724 0.123969935 1.1507043 -0.99988645 2.6417122 1.2111257 -0.10878204 0.9846249 1.4313266 1.238307 -0.021132654 0.5036024 -0.07564803 -1.3431144 -1.0374622 0.68951046 -0.05883739 -0.57827026 0.5358899 -0.3991478 -1.1337903 -0.022551041 2.4494083 1.0649197 0.63131267 0.104432285 -1.8653716 -2.2297728 -1.1449819 -1.5849558 -1.8671637 2.4891777 -0.45038304 -0.91398466 -0.71714497 2.206814 0.74821335 -1.5404544 -1.8958979 -1.067072 0.42490444 -2.0774107 -0.52741176 0.5518767 0.10535851 0.7793108 1.7266496 -1.1196953 0.70921713 1.3646997 1.2683296 0.9186479 -1.4761077 -0.08110251 3.0572917 -0.35990593 -0.4054849 -0.7396167 0.58518934 -0.8806783 0.5409044 -0.7369382
次 1.7127926 0.9015072 1.1685448 -0.10284178 1.9006304 2.7252088 1.8344947 -2.2039945 -3.0997221 0.9022686 0.83747315 2.4200397 -2.1569417 -0.35933334 -1.2984484 0.5689883 0.3051887 2.4292638 -2.3227198 1.7019144 3.053109 0.73086596 -0.06256642 0.070842 -2.676165 -0.45273542 -0.6717305 -1.6500673 0.9035102 -1.933635 -2.0516605 -2.664745 0.6851825 -0.15592164 -2.3718054 -1.3526009 1.591823e-05 -2.3763616 -1.7218245 -1.2517598 1.048313 -0.8332059 -2.836239 -2.713461 1.978808 -3.5459633 0.043380715 -1.1302631 1.3885282 -1.9061017 -1.0249822 -1.5043613 -0.9240098 1.1633257 1.289674 2.3973668 -4.304976 -0.18941776 -2.2195141 1.301711 -0.3651198 1.302066 -0.8934756 0.043528605 -0.94206786 -4.949288 -1.3916903 -0.37470883 -1.4012667 0.27814606 -2.8180747 2.0080369 -1.3006843 -0.17542028 -2.2638414 -1.9503123 -0.13126893 1.2900052 0.65371376 2.4569216 0.16422398 0.97260606 5.105059 -0.6406492 0.9174482 -2.413406 -0.56199366 0.98026 1.0543597 1.4386405 -2.2681892 0.7090318 -0.43603617 1.3295709 0.9035176 2.4590437 0.40775418 -0.36031392 4.0843096 -1.8941511
扣 0.22427495 -1.3228925 -1.0449195 1.1411682 1.4505563 -3.9018261 -4.6663513 -0.49583417 -0.70701474 -1.0991464 -1.122664 -0.008138387 -0.5610541 -1.4640062 1.507725 -0.12440345 2.1496575 -0.622841 0.09344057 1.1337842 -1.9366329 1.1473325 0.7407207 1.1350224 2.2465928 -3.1101604 -1.4278554 -2.6731915 1.7557286 -2.6556656 -2.235576 -2.6065915 0.90261585 -2.8030841 0.6262125 0.4692224 1.7856777 0.35581863 -0.73913 -1.4356092 1.2689204 -1.7364998 2.0374095 0.5730846 -2.3376079 -1.3358355 -0.39861816 -0.19328354 -3.4564283 1.6048728 -0.30338538 1.4906433 -0.27906957 -1.1500006 0.7402129 0.89312905 -0.42844695 3.6804318 -0.2739052 0.48733997 0.41934082 2.279667 -0.7319652 -0.375607 -0.7901499 -0.24494879 -1.0886734 1.4519523 -0.378482 -1.291411 0.15560578 1.2530158 -1.007435 0.34699786 -0.13766716 -2.1612365 -0.5710191 -0.6041431 1.8026611 -0.75650835 0.05658369 0.31888804 1.3298235 -1.6873096 1.1530765 3.603961 1.8009552 0.1331774 0.9836357 -2.710935 1.0277853 -0.19960992 1.0832856 -1.4070061 1.7432207 -4.157775 1.3600863 -0.6895665 -0.82023543 0.13316235
月 -6.2387276 -0.5265865 -3.1172626 -1.651186 2.837076 5.9153385 -1.2399923 -2.2629802 2.5185459 -1.5163366 -1.789311 -0.17595516 -2.6492593 -0.41055396 -3.4183977 2.1469462 1.4418436 1.6943818 -0.9375726 0.39098862 -0.8004359 -1.0004824 -0.23267429 -0.5762942 0.53128606 -0.15652487 3.5015047 -1.2783276 1.5391921 -4.80065 1.7618654 0.0727998 -4.0912747 -3.527766 -0.819768 0.041280042 -0.691006 -1.6506923 -0.035231903 -0.57721674 -2.2936966 -1.8706471 -2.0517414 -0.3135523 1.7534355 -0.8607872 -1.7778413 -0.4582888 2.7069392 1.1565156 -2.295208 1.3995726 -0.010635952 -0.5197089 1.4968 0.25638026 -1.1097684 2.667506 0.271843 -1.7268149 1.3535967 -0.9021489 -2.0034454 -1.3473642 1.8751749 -0.79658073 -1.7804852 -1.0252618 0.07631079 -0.3033429 -0.93077976 1.0029137 -1.1590346 1.1123118 -1.3984088 0.08717124 -1.2969633 0.24676473 -1.6244192 -0.11987366 4.1878123 0.8653512 3.653194 0.34890997 3.8261397 -1.7501657 0.8342805 -1.4484715 -0.08791209 0.9548816 -0.7641633 -0.17701788 0.22313069 -1.6489328 -0.6047596 2.6462831 -0.016339092 2.914019 2.8036613 -2.270951
取 -2.361311 0.40076485 1.1132714 -0.80274814 -3.1076574 -1.4526688 3.119153 1.5673802 1.6797402 0.94879556 -0.11386316 -1.5071969 0.006779672 -0.7709911 2.571767 0.6162434 0.49930876 -0.82655555 1.4328605 1.1753101 0.9160494 1.5486474 -2.1042578 -1.2610699 1.0615891 -0.39091256 1.0996966 0.11716848 1.6619067 0.039091077 2.4263406 2.3361502 1.3154773 1.6907101 -1.993977 -4.45107 -1.3366942 1.2561872 -3.23916 -0.6040946 0.5677444 0.8145415 -1.7026749 0.1890525 -1.0789557 2.8471048 -0.5895826 -0.075006485 1.6974608 3.6260254 -0.24396881 2.0312614 2.1097012 -0.12344809 -0.3298187 3.325779 1.8509853 3.0120473 1.5008901 0.0029469868 -0.21159825 -3.4481387 -1.188211 -2.3403761 -0.6903555 -0.23062086 2.5047038 -1.3513906 2.9470553 -2.3630776 3.232161 -0.42070806 -2.1591096 0.7210447 0.58551794 -0.121942036 -0.30299133 -2.9203072 -0.12513766 1.280216 -1.1454656 1.9543583 -2.7819304 -0.88266814 -1.7981187 -0.8589557 -0.036736492 0.97878385 0.77747166 1.1988306 0.16736364 -0.63669574 -2.1776776 1.9148302 -2.3380969 -0.7865183 -0.050842326 -0.7968504 0.3773916 -0.8398063
候 -0.81883395 2.618754 -1.1794826 4.190214 -1.0939528 0.28940612 -1.1800693 0.47610018 1.1106619 -2.0569744 1.2107307 3.4409585 -0.8762458 -0.5619539 1.0326337 2.0623932 -0.07517385 0.36363673 -2.320108 -0.3851989 0.27078667 2.2180045 0.08998112 -0.62476635 0.040213782 0.8723598 -3.1364062 -1.6748389 0.016418861 -0.61754364 1.2932199 1.4401321 -0.8473583 2.9803553 -2.1408467 -4.294704 2.6777422 -0.01474053 -2.5234559 -2.2692604 4.4820304 -2.9873161 -1.5405396 1.5794429 -0.17760359 1.51357 2.009862 -2.9633884 -0.93812793 -2.5087097 -3.8957345 -0.697202 1.4359578 -2.5863755 0.53741294 -4.5676017 -0.2615578 -1.1509724 2.286633 1.1393847 -3.0508575 -1.0588889 0.574228 0.5637229 0.594909 3.0512908 -0.46183884 0.111438595 2.7010036 1.0697217 -1.2502369 0.21147798 1.0375054 0.8980448 1.6634974 -1.1641518 -1.9728751 -1.2591647 0.3544767 -2.6448278 -1.4168355 -0.8378125 -1.0939662 4.2691565 0.643878 1.0683796 -0.7105748 3.6198487 -4.385785 1.9140664 -5.0407176 1.725997 -0.7807497 -2.1046727 1.5305251 1.9269658 2.6952648 -2.1087673 -0.5163877 0.818041
机 0.28496605 0.3415875 -3.3881881 -0.18137681 0.6962814 1.797857 2.4651918 1.5868534 -1.1915079 0.0066432254 -2.587954 -0.036893167 2.5567923 -1.0886953 2.974638 0.025871461 1.8589386 1.0029885 2.0658057 -0.72461164 0.36690375 0.21781695 -1.5565655 3.7132053 2.9149048 3.2935739 2.0610096 -1.5653327 0.18405096 -3.6557617 -1.0424647 -1.0395117 -2.006819 2.3247192 2.1599574 0.6147256 -0.6717449 -1.6727316 0.38426226 3.7124853 3.0439632 -1.9291434 1.214697 1.7340153 2.6177044 -1.5488148 -0.88866407 -0.7718195 1.1742785 -1.2456406 2.7899363 -0.49399835 1.5699251 -0.713215 -1.4484562 -0.4127697 1.2543768 0.95771044 -4.4876003 3.4364035 -0.31718504 -2.199049 -0.14601034 1.4042624 -0.22356565 1.2143372 -0.22128849 -0.63012636 -0.77383304 -2.909063 -1.4735553 1.0846059 1.6280686 -2.0665374 2.2145495 -0.5885897 -1.2342285 0.27366132 -1.0838692 -0.64970195 -2.6765516 -2.3182507 -2.2101831 -0.6490367 -4.262579 0.4473829 -1.8392346 -1.0179148 -3.8971713 -2.0368993 3.1697054 -1.2657951 -0.69207156 -1.0270162 -1.3857627 0.61487937 0.36923647 1.8343889 0.512807 4.0057497
来 -0.09386234 -0.668014 -1.8567023 1.6346214 3.0536063 1.0632277 -0.9371266 -0.794152 -1.3266206 2.5628915 1.163561 0.49430454 -2.1846716 -0.7199701 0.51919156 0.901163 2.6207826 -2.433934 1.1755568 -0.28685352 0.070271716 0.5673632 2.0992725 3.1980863 -3.167095 1.2846599 -1.1219682 1.3691 0.089696 -1.7415851 -1.8119978 2.1216772 1.7738948 2.3843377 1.6223226 -1.0195768 -0.8783929 0.82050407 -0.8415619 1.3309264 -0.33753505 1.3377208 -0.6660648 -0.45507008 1.0865182 1.6980963 2.2033017 -0.46756625 0.21225032 -3.4051924 0.5289689 0.5682113 -4.509607 0.9404842 -0.64887166 1.9774183 1.0047255 1.7411762 2.197857 -0.07022849 0.95454025 1.5180318 -2.5498116 1.3471849 -3.0814338 0.10106701 -0.23765494 1.8260244 0.791611 1.6255021 -2.856213 -0.08695845 -1.0582596 0.22447199 2.3902729 -1.1396344 -0.8309026 -1.6496762 -3.6537552 -3.2055647 1.5465786 -3.57496 0.6125775 -0.84665394 -0.20049424 -4.468339 -0.18799663 -0.54954225 1.66089 -0.7295566 -1.2316308 -0.6462287 0.74123126 1.6511885 1.7688652 -1.3566104 1.319452 -2.2122967 -0.014873809 1.6708956
上 1.004171 -1.7931259 -2.0659266 2.6131034 -0.65463173 -2.5801988 -0.05065254 -3.1077058 -0.96050423 0.602599 -0.27254078 1.1860754 1.3170279 0.17175542 2.297061 -2.829525 0.036964376 -1.6137857 -1.2622771 2.18824 -0.6702967 -0.11097349 -0.408505 2.43795 -0.9057423 -0.99490523 0.63741076 -0.30303398 0.19734447 -0.7809409 0.7603067 0.075191446 2.4205868 1.8809949 1.7339753 0.18071398 0.66011477 2.7543747 1.913052 -1.7822671 0.7086322 -1.1385077 2.2990315 -0.39505482 -2.2334077 -0.752813 0.4494556 1.989497 1.4870692 0.6569552 -2.2619915 0.91169816 0.031359144 1.7182552 0.67800415 -0.28931618 -2.035692 -1.7685429 -0.35918352 -1.2012585 0.06170376 0.31946763 -1.3825909 2.541037 3.3597782 2.777382 1.5938948 -0.11290036 -0.7248788 3.5820246 1.9544489 -1.036842 1.2815598 -0.6147815 -1.0921209 2.2996233 0.6508376 -1.9937737 0.6191289 0.98304856 2.6341703 -0.3256543 -1.841019 1.0644304 -0.8877325 0.9391095 2.7892854 0.2867944 -0.21068841 0.037759766 -0.65915954 0.695828 1.9138846 0.9083613 -1.6619542 -1.88057 0.64707005 -0.1674805 1.1479751 2.0407512
消 -1.4431113 2.43297 -0.122850165 0.33151212 1.63035 -2.279864 -2.002397 -1.3134978 0.7087754 0.83418876 -1.0206274 -1.8803229 0.7107999 2.7745693 -0.27726817 1.2125144 0.849186 -2.0919843 -4.910623 -0.81643254 -0.63399476 0.9734574 0.78992224 -0.2105948 -1.2603394 2.536593 -1.0811073 -1.0249616 1.0440462 2.3192055 -0.41447788 0.030957438 -2.3766088 1.3608626 1.1111611 3.2476578 -1.0141788 2.7685912 -0.1052174 1.9908832 -1.697053 -2.032634 -2.0667346 -4.1792054 -0.79014236 -1.6041225 0.5051726 -2.5738733 -2.9701138 -0.5318789 -0.36999604 -1.3722825 -2.8919363 0.31199452 1.1233308 0.33324626 1.9259757 -1.5425099 -2.553002 2.563209 -1.8641196 -0.8252493 -1.4626262 -0.4618833 -0.05034211 -0.1599958 -0.1591334 0.29319718 1.87685 0.47720662 -0.48624343 2.0071526 3.115868 -5.919737 -1.1873161 -1.6280663 2.210193 2.6973228 -1.4370267 0.45185956 -1.7330074 0.500082 2.2087002 0.30593356 0.9473568 2.5410597 0.8231985 0.8515467 -1.4462465 -0.1011075 0.12496347 -1.2504448 -1.3064481 2.6612818 0.41103476 -0.8091012 -1.6345383 0.04312426 -1.7182277 3.181578
日 -1.2084113 0.31839195 -2.9808471 2.0668247 3.2410076 -3.5769777 -2.5688426 -0.49936962 1.2240964 -1.4099628 -4.483608 0.4253234 -1.2668352 0.47292405 -0.25413194 -1.5909812 1.0685899 1.5365816 0.3139323 0.5040101 0.3009612 -2.677087 0.2041279 -2.0992565 0.23418342 -3.4938583 1.2229897 -3.0478222 0.95054764 0.9312166 0.9791772 -1.2626989 -0.012047306 -0.33737537 -2.3280292 -0.7124363 -0.64349824 -1.0828097 0.579279 -0.52936256 -0.7014959 -1.3300086 0.5160374 1.2479256 0.41611654 -0.44502735 -0.96762663 0.8782747 -0.63424665 1.4924154 -2.2444148 -0.95181376 0.9424882 -4.3684053 1.7438705 2.2649794 -0.63680595 0.966905 2.8601925 -0.89797777 -0.25729343 -1.4700533 0.42144123 0.623009 -0.65541047 -0.6054407 -0.708619 0.17235152 -2.4561589 -0.16605712 -1.6743518 0.94374186 0.6241061 -0.15925811 -0.36057758 0.9800699 -0.0023496896 0.92578226 -1.3504363 0.50664926 0.044110585 0.32146376 1.5168893 -0.42649624 0.032479238 -1.0175109 0.90064883 -0.5854403 2.2985892 -1.2839242 0.2678296 0.944056 -0.078654684 -0.16505948 0.61461747 0.8722741 -0.4447519 2.3484159 -0.8384556 -2.8173938
失 2.8242953 -4.31678 2.1445704 1.7041459 -0.23038854 -0.29984334 -0.36499295 2.348463 3.0801558 -1.3476775 0.31216085 -0.62268776 1.400942 1.0063419 0.37748015 -1.7260389 -0.7287662 2.6282492 0.24685873 1.7226374 -0.7907159 2.3519516 1.4280828 -2.7217321 3.5240622 -1.2537047 0.6286919 -1.0342553 0.74640405 -1.7070647 2.632876 -0.4032967 3.2776213 0.70116174 -0.9885516 -3.5547438 3.9833164 -2.3737762 -1.340734 -2.1733413 -0.5587177 0.41836998 0.48164466 -0.39581537 -1.5738015 -0.1430378 -0.14993362 0.43978265 -0.66908896 -0.24919364 3.6075444 0.33162332 0.85955787 -5.3628745 -0.10751742 1.4233185 -3.5186777 2.5341332 -0.106970064 -3.071425 2.9901838 -2.2360544 -0.13480368 0.4019961 -0.43600672 -1.3073716 -0.9844862 -0.12249702 -0.095099606 -1.6879613 4.5601587 -0.07419349 0.023962643 1.7642138 2.4471083 -1.4340161 -0.5755721 0.27097917 -0.1739254 1.0049242 -1.089773 -1.2051219 -3.0984375 1.5843261 1.0811514 -1.015502 -0.17921695 0.5113243 3.7944195 -2.514842 -0.9684717 -0.6508489 1.0685318 2.9398634 -1.9706631 -0.47899237 0.8551539 -0.5466301 1.7321054 2.5905738
下 0.6482899 -0.5943889 -0.32905933 -1.2798649 -2.5670087 -1.6923162 0.8218942 -1.8767581 0.7375272 -1.1593302 -0.540432 -1.1213983 -1.8918552 0.22858831 0.21112236 -2.4272637 0.80307806 0.9142842 0.3220859 -0.29242936 -1.251185 -1.3512161 0.90266097 -2.0088987 -1.4698584 0.47241783 -0.22885899 -1.1010963 1.3236492 -1.7766685 -1.2673839 -0.628325 -0.75032574 -0.36013037 -0.722306 -0.42006457 0.31031767 1.056922 3.0291467 1.8255898 1.8321329 -0.88697 -1.1412518 -1.2549005 -1.4083958 1.5617396 -3.9428205 1.2387112 3.4101458 -0.025860116 -2.9986067 -0.36387256 0.18211171 -0.32548594 1.3695264 0.86607915 1.7267928 -3.2840297 1.1366266 0.16270652 1.2286197 -2.2018228 0.76342374 3.300285 0.48728654 -1.7806833 -0.11747701 1.2049558 1.9002339 2.3514256 4.2245874 0.6206463 1.72731 1.0071409 -0.92491126 -0.5524561 1.9455009 0.27410838 -0.5695307 1.3450711 0.7096916 0.22693776 -0.00989061 0.4091402 -1.4649229 4.691289 0.60808766 0.2414677 -0.28066775 -0.13810539 -0.18441637 2.4747295 0.3601338 -1.608856 0.14478989 1.3499498 2.1934967 1.7459071 1.829624 -0.110517
打 -1.7846563 0.062879495 2.0055547 -0.37197202 -1.3243632 0.21966156 -1.5850424 -0.9260818 -1.9267775 -0.14260921 0.9480941 -1.1501632 -1.6502191 -0.021585176 -0.349231 -3.0517097 2.7255824 -0.8869585 2.290395 -1.279055 3.1792765 3.2538455 1.6371592 1.4522635 -0.12635553 -2.145999 -1.0785956 0.72318166 1.7347622 -2.8763535 -0.29617488 2.1992428 0.56828636 -1.0586393 -0.17968635 -0.49398735 -0.67882764 0.06369919 0.3670108 -0.5721906 2.0923722 3.4070895 -1.7685324 1.2668712 -1.9022092 1.1916203 1.6587546 -1.883301 -1.3175312 -2.4274683 1.4564216 -3.258292 -1.6228375 4.8080654 1.2237679 -2.0449555 -2.3826818 0.3640568 2.3319776 2.6699264 0.22905411 -0.014011474 1.240872 -0.13110672 -4.651178 -1.9617059 -0.6282063 2.4792838 0.2183106 2.3902946 0.9667621 -1.5976224 -0.07930739 1.6681565 -0.8192563 -2.2354376 0.27380052 -1.039051 0.8261155 -1.6432676 -0.9290967 -0.0794682 -0.35485306 -3.222661 -0.8892446 3.177135 -0.54699236 2.1568685 -0.92512953 -1.6997261 -5.091426 -0.0001415336 2.2911596 -0.6363549 1.5370646 -1.6243687 -1.0306586 -1.221784 -2.247339 0.784322
问 -3.802941 3.6579564 -0.16913983 1.0609481 2.7444482 1.9220985 2.2337055 2.1482453 0.12900352 3.2999082 0.9326419 1.6867093 -0.600596 0.1620449 -0.9970679 1.3398157 -1.6556454 -0.45130223 -0.043010753 -0.5469727 0.93765014 -0.83321863 -1.2414937 -0.4070462 -0.76763266 -0.04604942 -0.36901873 0.7468898 -0.6058906 -1.0026903 -0.3843605 -2.4385738 -4.9227123 -1.174522 -2.3287816 -0.3166613 1.7933356 -1.4573579 -0.6533556 -1.7403705 -0.44819823 -0.8195413 1.0228721 -0.33471507 -0.68504786 0.18343082 0.73135096 -3.1439064 -1.0543386 0.1086061 -0.42399424 1.2398359 -0.017617812 -0.10610209 -0.41777974 4.643572 -0.10261787 0.19443192 -0.25390923 -2.2885444 0.7698097 0.75743806 -2.3165417 0.89469284 0.88467085 0.41894457 1.1964129 1.0853237 0.057973225 -1.4322815 -0.85291094 1.0126386 1.2294781 0.68027407 -0.8276768 0.36480662 -0.616567 1.3593876 -0.21584229 -0.40384194 0.32257095 1.4233512 0.6476226 -5.2074833 -1.6758828 1.2568631 0.940125 1.6700618 1.3662679 2.2009625 -0.7033899 1.4683173 -2.2750716 2.517225 -3.1128035 1.9915063 -2.0058346 -0.5156558 1.2251719 1.558328
久 3.2866476 4.0587773 1.5520205 -0.06048609 -1.295363 4.4973874 -1.5013591 1.5106978 -1.7376986 1.9709618 1.0146928 0.9876074 1.6481181 -2.144356 0.69793963 -2.6263282 -1.0440615 2.3844588 -0.24789971 -0.45167068 -0.8781755 1.147008 3.0247002 -3.3830032 -3.2863872 -1.7715472 -0.5464197 0.6884058 0.9140003 3.465666 4.173173 2.546517 -1.0217291 0.34555718 -2.5859 -6.7522016 2.8407035 2.415729 -2.0534868 -1.1041199 3.970816 -0.19669405 -0.43506795 -2.7888694 0.58025557 0.6674294 -1.3286973 1.6410928 0.6204803 1.3368512 0.90069324 -3.679534 -0.71421576 -0.7700854 4.16521 -2.5150747 0.80096567 1.987414 -2.4620292 6.0279117 0.74677134 1.3271446 0.68833095 0.46979752 -0.30454296 -2.2836883 2.798262 -0.9189943 -0.5018202 2.585491 -0.21372516 1.6007594 0.51632994 2.822034 -2.7188551 1.712681 -2.0510132 -2.4343686 -0.5519675 -2.0204256 3.2748134 0.17455065 1.3256454 0.5036234 -0.10211307 -3.0161424 -1.2827977 2.1960168 -1.6578779 2.272686 -3.854796 -2.7097673 -2.725985 0.8015538 2.6404748 0.17481712 -2.1017253 3.142921 -0.39876598 2.39356
示 -3.4077117 0.28435105 2.2187583 2.1728742 -1.7863853 -0.106415585 0.58118486 0.11560941 -2.0712583 1.7616081 -2.1769102 2.5667553 0.110015064 -2.743007 -2.1147645 -1.9154071 0.58528566 -2.4569569 0.47242296 -0.8292047 -4.6749473 -1.3567793 -1.4644834 3.658913 -2.445124 1.604149 -1.0743566 -2.1667228 4.9832416 1.3431443 0.14978379 -0.6787306 1.6076553 2.3766782 -0.77102655 2.6921225 -1.0976763 1.6147608 -2.807427 -0.3892874 -1.2682635 -0.4366925 -0.25436118 -1.8697374 -0.352948 2.3040082 1.2243181 -0.9807078 2.8751538 0.77536684 1.9141417 5.5818815 -1.2325565 -5.0888495 1.2576536 -4.12173 -1.9806404 2.2021246 -3.5470953 -3.3022401 2.4830337 3.1670597 2.096465 -0.038499016 1.7431233 -2.8984096 -1.4509519 1.1208364 -1.1363057 2.0972195 5.013341 0.20141487 -1.4295936 1.7828754 -0.54383385 3.287884 -3.0674243 -1.011307 -2.7079048 1.1033434 -0.33596697 0.20481473 -0.34412152 -0.5428666 -1.7630461 -0.7368407 -1.8117596 1.3160995 -1.4142565 0.5836334 -0.42809513 -2.2397666 0.87019205 -2.1991684 -2.7022083 1.6070707 1.8705537 -1.6797475 -2.8785079 -0.16982588
呢 2.0440092 -2.2348025 0.9243623 -1.0085012 -0.28273076 -0.26711002 -1.68504 0.1189766 -0.6227084 -0.56577015 0.6241779 -0.029985072 -0.18039872 -0.20614558 -0.23486444 1.1752374 -0.4937902 -1.1966486 -2.0317922 0.6657428 1.0853019 0.43996996 1.1580912 1.645409 -0.37041813 0.42909732 0.8425692 -1.7440987 0.16881491 -0.89996845 0.03001763 -0.4568672 -0.24468677 0.102412395 1.1575109 -0.023152247 1.6623278 0.49260148 0.26764962 -0.050818406 1.1776878 0.1418522 0.4301597 -0.085682385 -0.8821424 0.15034106 0.088124774 -0.2610943 -1.1653637 -0.044088483 0.16967534 0.31986842 -1.1462778 0.8134669 -1.605286 -0.23226094 0.22597334 -0.23918805 -0.32563064 0.2306596 0.36100966 0.6351657 0.94822174 -1.4638461 0.3689373 -0.8098328 -0.41509095 -1.4810102 -0.8300711 0.058068864 -0.63611054 0.9510771 -1.3553764 0.21173196 1.289026 -0.6497998 -0.7838093 -2.696265 0.11029865 0.54806465 -0.47906074 0.41090328 -0.6201473 -0.42893726 -0.28399956 -0.47619417 -1.0831817 1.6098429 -0.3282063 -0.61141276 -0.20484307 -0.56246114 -0.22955248 1.4956932 0.4154935 0.061836604 0.90363425 -0.9858513 -1.4073665 0.7931213
败 1.5791075 2.5350318 -2.3940492 5.722307 0.56005025 -1.0974203 -1.7534662 2.605774 1.4539974 -1.2416828 -0.10753706 2.221089 0.7922924 1.2905452 -0.3171695 -1.7940245 -0.25756252 0.17595819 -2.9161744 -1.0421929 -0.50236773 -0.7219298 1.2052443 -0.24282052 -1.6277436 -1.2836328 1.6812131 -4.0267415 0.13030775 1.105414 -4.367181 -0.68151104 -2.743823 -0.09000008 2.1114032 2.3470423 -1.188294 1.2904326 0.6100124 2.8411074 -2.1507807 -2.5209897 0.61558187 -2.5027 -0.11762501 -1.0962427 -0.85132384 -1.2919095 -3.288959 3.989679 -0.6427919 1.749181 -2.442499 -2.9277565 -0.20611095 -0.70982337 0.06880838 -1.0165371 -2.666464 1.962281 -1.8634924 -2.3839045 0.568174 -0.08242402 -4.8449407 -1.8872657 0.74335057 2.1194267 1.9134178 3.4198053 -3.5197954 -2.0767791 -1.6138401 -0.26485294 -1.6868117 1.2630634 -0.9157799 -0.34560624 -2.1792479 -0.288774 0.28881106 1.6129377 1.1076806 2.2312534 0.15762076 3.9173496 0.57353866 -1.219997 3.3806865 2.3596897 -1.7855246 -1.4585372 -0.20052537 2.0657535 -2.9163861 -2.1918693 0.35700566 -2.9842758 -0.70750135 1.4275547
更 -2.1062455 1.7794997 1.8352526 -1.0556455 -0.5522541 -5.2710924 -3.3276572 -0.62129956 1.0191493 -0.6005923 1.6054001 -1.12248 0.1843836 0.008063536 -1.6155418 1.9051487 -0.8891084 3.6310182 1.3854582 1.7490911 -2.347861 -1.20563 0.21489735 0.62975794 -1.007228 2.1445122 1.6349808 1.6404489 0.7046066 -0.23586908 -0.029959874 1.5101448 1.3150479 -0.34589866 -0.737992 -2.8273146 0.40830606 -2.062407 2.3536878 1.9208481 -0.5347353 -3.9762053 2.08521 -0.6904837 -0.03239845 2.0011482 0.17877607 1.0512724 -1.7571785 -2.2886927 -0.20501402 -0.2593382 -0.057515554 -0.076078095 -0.9703834 1.5409014 -0.66642845 1.0081582 -0.8839423 1.0902803 -1.3137627 -0.28399703 0.33694258 1.6972575 -3.7569273 -1.2367482 4.0441117 -4.515583 -0.17987923 0.6713737 0.18025135 -1.8256426 -0.10439381 -1.3270415 1.7915375 -2.3808622 -0.36666927 0.5607515 -0.33476892 1.5967209 -1.8223636 -3.3843732 0.30051228 -0.68778557 -1.6661122 0.42299408 -2.6558814 -1.8906105 -2.2656343 3.7495995 -0.049569163 -0.3695826 -0.6481273 2.623015 0.5741584 0.11922023 -0.56707066 4.3271227 -1.7477658 2.9070344
改 -2.5269156 0.41887483 -0.7653568 -0.24578965 0.61948615 -5.447035 0.23351014 1.6559412 -0.039809804 -0.4293545 -3.2984037 -2.2041626 -1.9482346 5.348534 -2.8601987 0.6474767 -4.683393 1.8458973 0.37934336 5.379545 -1.782859 -0.00935957 0.72302985 1.2307998 1.7845755 1.0141014 -2.4008543 -1.0407957 2.8878357 -1.1872213 0.21150139 2.0551212 -3.2616496 1.1664385 -0.48790646 -4.254296 -0.92261744 -1.8702565 -1.813679 -2.96586 0.18391189 0.9135537 2.095334 -0.47487992 2.0323424 -0.15099412 1.1012071 -1.7696861 -1.0871993 -1.4082279 1.3827918 1.9537863 4.7616196 3.0785859 3.1054976 2.2488956 0.5954672 -1.8429065 -1.6565766 0.38213757 -2.3483002 -0.3571659 -3.4619517 -2.77123 -0.9122235 -2.067104 0.60946476 -0.7637783 1.5359735 -0.82308954 -0.27681115 -2.8041193 -2.5300195 -0.6531158 0.46304834 2.3210301 -0.9422456 -1.1453953 0.98461574 0.65516293 0.5929509 0.3641233 -0.7786347 -1.6611459 1.1679603 0.6698104 2.5452836 -1.9302512 0.23592113 0.80157256 2.0354548 -2.2200248 0.59176356 -0.95864445 1.1685427 -1.5457402 0.3305491 -0.5691312 2.0129235 -0.57197475
才 -0.34511635 -0.16335768 0.3742353 -2.6136508 -1.0083092 -1.8537085 1.1933289 0.5593873 -0.51665235 0.36850193 1.7374837 0.4658596 -1.1150751 0.63175946 1.8726549 1.4639854 -1.0430484 2.7853324 0.07519718 -0.6031862 -1.0489945 1.3307489 -1.1080505 1.4895897 -0.024731064 0.8963936 1.0224138 1.0423642 -1.8892417 0.54058135 -0.33204234 4.0434866 1.5196211 4.0257173 0.13197428 -1.9881946 -0.4541014 -0.11296747 -2.995941 -3.4690635 0.61871356 -0.85783625 -1.6731031 -1.2875481 -1.7390331 1.3795434 0.019877205 1.0765954 -0.07414495 -0.514623 -1.0324516 1.8120128 -0.7451017 3.363583 -2.1510053 -2.1125643 1.7372208 -0.5482288 -0.38029402 0.5151575 -0.50656015 -0.293903 -3.394857 -2.0935185 -0.8320425 -4.5902157 -2.89302 1.3711919 -0.49946755 1.6228259 -1.3906072 0.57634443 0.37906948 -1.0640544 -3.8825743 0.16295624 0.027021592 -1.8424953 2.4845204 -1.1105745 1.5202897 -0.17397852 0.4572805 -0.07318062 -3.2250457 -0.21423078 -2.3545518 -0.119210735 0.17655231 -0.12244928 -0.3728815 2.2861013 0.0094934 1.4651577 0.9031527 0.57600445 0.32720485 -0.47136235 -2.1157298 -0.62937844
2 -2.7592888 -2.849035 -3.3960648 -1.0557325 2.692134 -2.6487372 0.46029583 1.2626452 2.3813717 -1.4805708 -2.3203802 -1.7972175 2.306057 0.7914901 -3.057696 0.93436265 0.64684296 0.4132682 0.33330005 1.5197161 -0.9785343 0.08281257 2.4139552 2.6460686 -0.8145712 -1.5215939 -1.3084624 1.0652443 -0.8217901 -0.839179 1.1644084 -1.2093862 0.24332903 -1.5794923 -1.6865609 -0.3413111 -0.82956547 -1.7979212 0.7571394 1.1819044 0.9503489 -2.9615564 -1.6161814 0.6197416 0.9376362 -0.21811604 0.23744383 -0.080073476 -0.05481093 1.877183 -2.233908 1.8838563 0.26233378 -1.4235756 1.0298877 1.858129 0.8267502 2.025808 0.08714945 -1.378027 0.06080639 0.11802809 -0.48650488 -0.12951227 0.61464417 1.3882784 -1.0797648 0.096261606 -2.222451 1.1824647 1.0072849 0.52612394 0.6958604 0.6005401 -0.07713144 1.2605568 -0.38917413 -0.052549765 -0.25953156 -0.04167989 2.3401127 0.086788334 2.0395956 2.9046862 -0.44076675 1.3108557 1.2219312 -0.6267952 -1.1321884 0.70076305 0.9034102 2.5254962 0.06717719 -0.26918662 1.6535807 -0.6830472 -2.4187965 -1.3528255 -0.06978364 -1.3211755
想 -4.0279636 -0.21616295 1.5038767 1.143643 2.7615807 3.929679 1.8007635 -1.1350998 -0.20146029 -0.2613415 -1.1730423 1.056538 -0.1452971 2.9568448 2.3971536 0.1674429 1.0061268 -1.113206 1.4474915 0.95586085 0.9451601 -1.4399341 2.842253 -0.49207145 0.5999514 -0.008757516 0.46021178 2.1272616 2.44992 1.9696321 -4.7625127 0.19672512 -1.0311761 0.01820563 0.88876384 -0.8283783 -0.80124825 -5.0509706 -0.6533338 2.456503 -0.6273678 -0.7932447 -0.76126975 -1.268344 -0.5917349 0.5510512 -0.56582856 1.7151499 1.8546616 -1.1372688 0.117005184 -0.21650274 -2.298988 -1.342787 1.1385632 1.3671876 2.4179106 1.4532754 -1.5826532 0.73798114 -0.47065052 0.21804385 -1.1615204 0.8041117 2.251662 -2.4843853 0.7146164 0.37485236 0.3055858 -0.8770728 0.0075388514 -0.07240228 1.7987059 2.0203273 1.3834203 0.16071264 0.90302527 0.21235721 0.8589957 2.2624214 0.57282573 1.2424859 0.900056 0.30948383 2.4733157 0.4875015 -0.62180644 -1.8017654 0.9625138 -0.0042745993 -1.472271 3.0331373 -1.6617115 -1.6093628 -0.9955125 4.1433177 1.3360581 0.6984294 2.3274353 -1.7719362
这 -5.080602 -2.8787887 0.95708156 -0.6786494 1.4937215 -1.605218 -0.5448092 1.6041576 3.046704 1.3178693 0.60480833 -1.7476461 -0.87597436 -1.9611146 -2.3286426 -0.5996408 1.2184455 -1.7260659 -0.3901904 -1.8807422 -0.511866 1.6380188 0.00044190174 0.25370407 1.4383769 1.8949604 0.12098619 -0.86493415 -2.336716 -1.8832252 -0.50381064 1.0655909 -0.605795 -2.038936 3.340212 0.96508336 1.5170827 -1.8330262 -0.1630834 2.3106992 -0.77011216 -2.2450836 3.066108 0.3362441 0.5232537 0.7722163 -1.1345417 1.4983399 1.4581935 1.1051054 0.87383705 1.6948198 -0.10208111 0.22985694 0.8620635 0.16973314 2.7816868 -0.65844554 2.6543603 -2.2264822 0.76286834 -1.3642788 -0.83667856 -0.30115083 2.630692 0.87183917 -3.6452003 0.99182916 0.74709964 -2.4858427 1.0450754 2.0095034 -0.9594325 -1.1617495 -2.651066 -3.5670412 0.7280532 -2.0730138 0.99525285 -1.2204741 1.9545915 -1.2128534 -2.6892254 1.4394721 0.15806985 -0.38686997 -0.74734765 -2.5085065 -2.2187045 0.7399951 0.23601976 0.23078449 2.351586 0.33457485 0.2674138 1.2479458 -2.0652676 1.3514909 -2.564616 0.9371301
定 -0.41939953 0.20932606 0.19162074 -1.3029655 -0.27916953 -5.32524 1.3234105 -0.08558737 -0.73867744 -0.534926 1.4318739 0.28653988 -1.2004206 -2.2728653 0.59004754 -2.4550352 -2.9120338 -0.33030194 2.403531 2.1726556 -4.12023 -0.91959625 1.3508254 -1.8905876 -2.810704 1.7787659 -3.889164 1.5026094 -0.75174654 -0.8900338 0.5392713 -2.292726 0.023794696 1.460045 4.2763305 1.9659958 1.0777584 2.0315964 1.0790614 1.3003584 1.0340054 -0.8446386 1.9934105 -0.50410336 0.7563263 -3.6800764 -4.108086 -1.1695662 -0.46405187 -2.0298452 0.7628001 -0.7743774 2.0280359 0.9224575 0.7880017 1.3124937 -1.5638869 2.7813942 0.06262954 1.0873171 -1.8310261 -1.38539 -2.5458472 0.67722976 -1.1401962 -0.9758282 1.5334436 -0.09620522 -0.37425125 -3.7669623 0.89992124 -4.9842715 -3.2583246 -0.2724123 -0.70519996 2.4947097 0.2285501 -0.59716696 -0.7810776 0.050024424 1.5579438 -1.9461912 -3.6778376 -0.38618094 3.2083673 0.15246786 -3.0457227 0.5126304 -2.6447563 -0.23542778 -2.0984151 0.26694807 -0.062259465 -2.066739 -0.3304041 -2.3540604 3.7610178 3.9541264 0.22212528 -1.3509309
账 2.4866235 0.307138 -1.6687404 -0.062096138 -0.8020199 -1.0465704 -2.064895 -2.556539 -1.9552745 0.18909118 -3.0512073 -1.3046825 -2.3465035 -2.0622938 -0.69143987 2.8398552 2.263467 -1.4506096 0.51574665 0.13784006 0.7697983 -1.4394612 -0.88506687 1.0905087 0.69124067 2.4224122 -0.280584 1.5410174 1.0615329 -3.8238852 -1.5427463 1.1889157 2.1024117 -1.1829838 -2.573276 3.6097512 -3.0514731 -0.8674413 0.3602811 0.4055008 2.5490825 0.9854215 1.7944754 0.25271586 -2.1448011 -1.2085682 -1.285251 -0.44765526 -2.6290169 2.1300552 1.4192959 2.1071854 0.9661991 -0.6395397 0.054253 -0.16171786 0.73868614 4.2851224 -0.91931134 -2.7417712 -2.088818 -1.8033689 -0.3194041 1.0742356 -1.2278619 1.9287707 -2.0178087 1.1216996 -3.5318913 0.50740963 -1.8754603 3.1033194 0.5774281 -1.1112369 -1.3940415 -0.070545435 2.4138694 1.7542589 -0.69386095 -1.4620577 1.9866761 1.163578 -3.1892052 1.0684042 -0.8672114 -1.083358 0.5641603 -0.38066673 0.5215638 0.994676 -2.10015 2.8588839 -2.4551115 -0.86054784 2.9453795 0.052223463 0.9448543 0.9344815 -0.4056002 0.9653733
